{"learner":{"attributes":{"scikit_learn":"{\"_estimator_type\": \"classifier\"}"},"feature_names":[],"feature_types":[],"gradient_booster":{"model":{"gbtree_model_param":{"num_parallel_tree":"1","num_trees":"800"},"iteration_indptr":[0,1,2,3,4,5,6,7,8,9,10,11,12,13,14,15,16,17,18,19,20,21,22,23,24,25,26,27,28,29,30,31,32,33,34,35,36,37,38,39,40,41,42,43,44,45,46,47,48,49,50,51,52,53,54,55,56,57,58,59,60,61,62,63,64,65,66,67,68,69,70,71,72,73,74,75,76,77,78,79,80,81,82,83,84,85,86,87,88,89,90,91,92,93,94,95,96,97,98,99,100,101,102,103,104,105,106,107,108,109,110,111,112,113,114,115,116,117,118,119,120,121,122,123,124,125,126,127,128,129,130,131,132,133,134,135,136,137,138,139,140,141,142,143,144,145,146,147,148,149,150,151,152,153,154,155,156,157,158,159,160,161,162,163,164,165,166,167,168,169,170,171,172,173,174,175,176,177,178,179,180,181,182,183,184,185,186,187,188,189,190,191,192,193,194,195,196,197,198,199,200,201,202,203,204,205,206,207,208,209,210,211,212,213,214,215,216,217,218,219,220,221,222,223,224,225,226,227,228,229,230,231,232,233,234,235,236,237,238,239,240,241,242,243,244,245,246,247,248,249,250,251,252,253,254,255,256,257,258,259,260,261,262,263,264,265,266,267,268,269,270,271,272,273,274,275,276,277,278,279,280,281,282,283,284,285,286,287,288,289,290,291,292,293,294,295,296,297,298,299,300,301,302,303,304,305,306,307,308,309,310,311,312,313,314,315,316,317,318,319,320,321,322,323,324,325,326,327,328,329,330,331,332,333,334,335,336,337,338,339,340,341,342,343,344,345,346,347,348,349,350,351,352,353,354,355,356,357,358,359,360,361,362,363,364,365,366,367,368,369,370,371,372,373,374,375,376,377,378,379,380,381,382,383,384,385,386,387,388,389,390,391,392,393,394,395,396,397,398,399,400,401,402,403,404,405,406,407,408,409,410,411,412,413,414,415,416,417,418,419,420,421,422,423,424,425,426,427,428,429,430,431,432,433,434,435,436,437,438,439,440,441,442,443,444,445,446,447,448,449,450,451,452,453,454,455,456,457,458,459,460,461,462,463,464,465,466,467,468,469,470,471,472,473,474,475,476,477,478,479,480,481,482,483,484,485,486,487,488,489,490,491,492,493,494,495,496,497,498,499,500,501,502,503,504,505,506,507,508,509,510,511,512,513,514,515,516,517,518,519,520,521,522,523,524,525,526,527,528,529,530,531,532,533,534,535,536,537,538,539,540,541,542,543,544,545,546,547,548,549,550,551,552,553,554,555,556,557,558,559,560,561,562,563,564,565,566,567,568,569,570,571,572,573,574,575,576,577,578,579,580,581,582,583,584,585,586,587,588,589,590,591,592,593,594,595,596,597,598,599,600,601,602,603,604,605,606,607,608,609,610,611,612,613,614,615,616,617,618,619,620,621,622,623,624,625,626,627,628,629,630,631,632,633,634,635,636,637,638,639,640,641,642,643,644,645,646,647,648,649,650,651,652,653,654,655,656,657,658,659,660,661,662,663,664,665,666,667,668,669,670,671,672,673,674,675,676,677,678,679,680,681,682,683,684,685,686,687,688,689,690,691,692,693,694,695,696,697,698,699,700,701,702,703,704,705,706,707,708,709,710,711,712,713,714,715,716,717,718,719,720,721,722,723,724,725,726,727,728,729,730,731,732,733,734,735,736,737,738,739,740,741,742,743,744,745,746,747,748,749,750,751,752,753,754,755,756,757,758,759,760,761,762,763,764,765,766,767,768,769,770,771,772,773,774,775,776,777,778,779,780,781,782,783,784,785,786,787,788,789,790,791,792,793,794,795,796,797,798,799,800],"tree_info":[0,0,0,0,0,0,0,0,0,0,0,0,0,0,0,0,0,0,0,0,0,0,0,0,0,0,0,0,0,0,0,0,0,0,0,0,0,0,0,0,0,0,0,0,0,0,0,0,0,0,0,0,0,0,0,0,0,0,0,0,0,0,0,0,0,0,0,0,0,0,0,0,0,0,0,0,0,0,0,0,0,0,0,0,0,0,0,0,0,0,0,0,0,0,0,0,0,0,0,0,0,0,0,0,0,0,0,0,0,0,0,0,0,0,0,0,0,0,0,0,0,0,0,0,0,0,0,0,0,0,0,0,0,0,0,0,0,0,0,0,0,0,0,0,0,0,0,0,0,0,0,0,0,0,0,0,0,0,0,0,0,0,0,0,0,0,0,0,0,0,0,0,0,0,0,0,0,0,0,0,0,0,0,0,0,0,0,0,0,0,0,0,0,0,0,0,0,0,0,0,0,0,0,0,0,0,0,0,0,0,0,0,0,0,0,0,0,0,0,0,0,0,0,0,0,0,0,0,0,0,0,0,0,0,0,0,0,0,0,0,0,0,0,0,0,0,0,0,0,0,0,0,0,0,0,0,0,0,0,0,0,0,0,0,0,0,0,0,0,0,0,0,0,0,0,0,0,0,0,0,0,0,0,0,0,0,0,0,0,0,0,0,0,0,0,0,0,0,0,0,0,0,0,0,0,0,0,0,0,0,0,0,0,0,0,0,0,0,0,0,0,0,0,0,0,0,0,0,0,0,0,0,0,0,0,0,0,0,0,0,0,0,0,0,0,0,0,0,0,0,0,0,0,0,0,0,0,0,0,0,0,0,0,0,0,0,0,0,0,0,0,0,0,0,0,0,0,0,0,0,0,0,0,0,0,0,0,0,0,0,0,0,0,0,0,0,0,0,0,0,0,0,0,0,0,0,0,0,0,0,0,0,0,0,0,0,0,0,0,0,0,0,0,0,0,0,0,0,0,0,0,0,0,0,0,0,0,0,0,0,0,0,0,0,0,0,0,0,0,0,0,0,0,0,0,0,0,0,0,0,0,0,0,0,0,0,0,0,0,0,0,0,0,0,0,0,0,0,0,0,0,0,0,0,0,0,0,0,0,0,0,0,0,0,0,0,0,0,0,0,0,0,0,0,0,0,0,0,0,0,0,0,0,0,0,0,0,0,0,0,0,0,0,0,0,0,0,0,0,0,0,0,0,0,0,0,0,0,0,0,0,0,0,0,0,0,0,0,0,0,0,0,0,0,0,0,0,0,0,0,0,0,0,0,0,0,0,0,0,0,0,0,0,0,0,0,0,0,0,0,0,0,0,0,0,0,0,0,0,0,0,0,0,0,0,0,0,0,0,0,0,0,0,0,0,0,0,0,0,0,0,0,0,0,0,0,0,0,0,0,0,0,0,0,0,0,0,0,0,0,0,0,0,0,0,0,0,0,0,0,0,0,0,0,0,0,0,0,0,0,0,0,0,0,0,0,0,0,0,0,0,0,0,0,0,0,0,0,0,0,0,0,0,0,0,0,0,0,0,0,0,0,0,0,0,0,0,0,0,0,0,0,0,0,0,0,0,0,0,0,0,0,0,0,0,0,0,0,0,0,0,0,0,0,0,0,0,0,0,0,0,0,0,0,0,0,0,0,0,0,0,0,0,0,0,0,0,0,0,0,0,0,0,0,0,0,0,0,0,0,0,0,0,0,0,0,0,0,0,0,0,0,0,0,0,0,0,0,0,0,0,0,0,0,0,0,0,0,0,0,0,0,0,0,0,0,0,0,0,0,0,0,0,0,0,0,0,0,0,0],"trees":[{"base_weights":[-3.361619E-1,1.7466954E0,-8.07426E-1,2.7205498E0,1.9287322E-2,6.3206834E-1,-9.605553E-1,2.9141815E0,-2.8599193E-2,-5.0728405E-1,7.800678E-1,1.547599E0,-1.1236297E-1,-1.955088E-1,-1.0545295E0,-2.635248E-2,3.1054318E0,-6.970567E-1,3.2785278E-2,1.2339227E0,-3.6629483E-2,-8.550751E-2,1.9758299E-1,-6.042407E-1,5.847855E-1,-6.269104E-1,7.189025E-1,2.5861857E-2,-1.075376E0,3.2797315E0,-1.0640761E-2,5.0709597E-3,-7.884082E-2,-1.0640761E-2,1.5278688E-1,-2.1521837E-2,1.1473763E-2,-7.15875E-2,1.1473763E-2,9.8804694E-1,-3.279289E-2,-8.549828E-1,3.4226677E-1,-3.279289E-2,1.0900885E0,8.281298E-3,-1.0908166E0,3.4082904E-1,8.1942305E-3,1.23039186E-1,-7.900937E-3,-8.8840604E-2,-5.024037E-3,-2.8599193E-2,7.2574906E-2,1.4275715E-1,-2.3996105E-2,-1.1110532E-1,-9.453713E-3],"categories":[],"categories_nodes":[],"categories_segments":[],"categories_sizes":[],"default_left":[0,0,0,0,0,0,0,0,0,0,0,0,0,0,0,0,0,0,0,0,0,0,0,0,0,0,0,0,0,0,0,0,0,0,0,0,0,0,0,0,0,0,0,0,0,0,0,0,0,0,0,0,0,0,0,0,0,0,0],"id":0,"left_children":[1,3,5,7,9,11,13,15,-1,17,19,21,23,25,27,-1,29,31,-1,33,-1,35,-1,37,39,41,43,-1,45,47,-1,-1,-1,-1,-1,-1,-1,-1,-1,49,-1,51,53,-1,55,-1,57,-1,-1,-1,-1,-1,-1,-1,-1,-1,-1,-1,-1],"loss_changes":[2.6885217E2,8.518295E1,5.1733276E1,2.3055481E1,1.13316345E1,1.7401878E1,1.3467789E1,2.2888397E1,0E0,3.809536E0,8.253612E0,8.689211E0,7.952965E0,1.337753E1,6.2759705E0,0E0,1.8295624E1,1.24578E0,0E0,4.515275E0,0E0,3.0847636E-1,0E0,1.4570274E0,5.302074E0,6.288741E0,6.2048006E0,0E0,3.610672E0,1.0196503E1,0E0,0E0,0E0,0E0,0E0,0E0,0E0,0E0,0E0,2.6024718E0,0E0,2.9061127E-1,2.8999941E0,0E0,5.9990225E0,0E0,2.9965057E0,0E0,0E0,0E0,0E0,0E0,0E0,0E0,0E0,0E0,0E0,0E0,0E0],"parents":[2147483647,0,0,1,1,2,2,3,3,4,4,5,5,6,6,7,7,9,9,10,10,11,11,12,12,13,13,14,14,16,16,17,17,19,19,21,21,23,23,24,24,25,25,26,26,28,28,29,29,39,39,41,41,42,42,44,44,46,46],"right_children":[2,4,6,8,10,12,14,16,-1,18,20,22,24,26,28,-1,30,32,-1,34,-1,36,-1,38,40,42,44,-1,46,48,-1,-1,-1,-1,-1,-1,-1,-1,-1,50,-1,52,54,-1,56,-1,58,-1,-1,-1,-1,-1,-1,-1,-1,-1,-1,-1,-1],"split_conditions":[-1.1146116E0,-9.109067E-1,-3.2945797E-1,1.8440384E0,-1.02100864E-1,-9.175209E-2,-1.0755146E0,-2.6376408E-1,-2.8599193E-2,1.7672354E0,6.839672E-1,1.0550251E0,3.502363E-1,1.2502756E0,-1.8119382E0,-2.635248E-2,-5.652935E-1,-3.516041E-1,3.2785278E-2,-7.353479E-1,-3.6629483E-2,6.0963905E-1,1.9758299E-1,-2.4678984E-1,-1.8432373E0,8.998225E-1,-1.211859E0,2.5861857E-2,-1.8145078E0,1.9563082E0,-1.0640761E-2,5.0709597E-3,-7.884082E-2,-1.0640761E-2,1.5278688E-1,-2.1521837E-2,1.1473763E-2,-7.15875E-2,1.1473763E-2,1.8924683E-1,-3.279289E-2,3.020841E0,-5.963423E-1,-3.279289E-2,4.5265043E-1,8.281298E-3,1.3063718E0,3.4082904E-1,8.1942305E-3,1.23039186E-1,-7.900937E-3,-8.8840604E-2,-5.024037E-3,-2.8599193E-2,7.2574906E-2,1.4275715E-1,-2.3996105E-2,-1.1110532E-1,-9.453713E-3],"split_indices":[509,660,555,192,210,178,660,77,0,308,662,558,194,518,177,0,274,179,0,410,0,1,0,19,83,70,550,0,716,362,0,0,0,0,0,0,0,0,0,190,0,15,197,0,194,0,23,0,0,0,0,0,0,0,0,0,0,0,0],"split_type":[0,0,0,0,0,0,0,0,0,0,0,0,0,0,0,0,0,0,0,0,0,0,0,0,0,0,0,0,0,0,0,0,0,0,0,0,0,0,0,0,0,0,0,0,0,0,0,0,0,0,0,0,0,0,0,0,0,0,0],"sum_hessian":[2.617145E2,4.5792458E1,2.1592206E2,2.7445148E1,1.834731E1,1.9257093E1,1.9666496E2,2.5928843E1,1.5163065E0,1.1827191E1,6.520118E0,6.216857E0,1.3040236E1,2.319949E1,1.7346547E2,1.3646759E0,2.4564167E1,1.0310884E1,1.5163065E0,4.397289E0,2.1228292E0,2.1228292E0,4.0940275E0,8.036425E0,5.003812E0,1.6831003E1,6.3684874E0,1.8195679E0,1.716459E2,2.319949E1,1.3646759E0,1.3646759E0,8.946209E0,1.3646759E0,3.032613E0,1.0614146E0,1.0614146E0,6.97501E0,1.0614146E0,3.1842437E0,1.8195679E0,1.4101651E1,2.7293518E0,1.8195679E0,4.5489197E0,1.9711986E0,1.696747E2,2.1986444E1,1.2130452E0,1.9711986E0,1.2130452E0,1.3040236E1,1.0614146E0,1.5163065E0,1.2130452E0,3.3358743E0,1.2130452E0,1.657323E2,3.942397E0],"tree_param":{"num_deleted":"0","num_feature":"768","num_nodes":"59","size_leaf_vector":"1"}},{"base_weights":[-3.294065E-1,-7.6560783E-1,1.3978485E0,-9.693049E-1,3.3800822E-1,-3.1223512E-1,2.2339983E0,-1.0264452E0,5.7845004E-2,1.3635757E0,-1.7449227E-1,-6.89207E-1,5.0746167E-1,4.05385E-1,2.6129992E0,2.8454697E-2,-1.0430622E0,7.195175E-1,-5.978656E-2,1.7203783E0,-1.8659342E-2,5.788653E-1,-4.8208314E-1,1.5194018E-2,-8.258056E-2,9.216054E-1,-3.3574965E-2,-3.8202245E-2,9.3078685E-1,-2.1105267E-2,2.7534404E0,-1.0593344E0,1.3173148E-2,1.1280463E-1,-2.9796725E-2,1.857919E-1,9.6967E-3,1.0915816E-1,-2.3334476E-1,-7.6321745E-1,4.9110425E-1,-6.087956E-3,1.1244547E-1,1.1695234E-1,-9.633485E-3,2.894843E0,1.2612735E-2,-8.631777E-4,-1.0804416E-1,-3.726312E-2,1.2727523E-2,9.180992E-3,-8.807739E-2,8.798402E-2,-2.856808E-2,2.1903524E-2,2.9825366E-1],"categories":[],"categories_nodes":[],"categories_segments":[],"categories_sizes":[],"default_left":[0,0,0,0,0,0,0,0,0,0,0,0,0,0,0,0,0,0,0,0,0,0,0,0,0,0,0,0,0,0,0,0,0,0,0,0,0,0,0,0,0,0,0,0,0,0,0,0,0,0,0,0,0,0,0,0,0],"id":1,"left_children":[1,3,5,7,9,11,13,15,17,19,21,23,25,27,29,-1,31,33,-1,35,-1,37,39,-1,-1,41,-1,-1,43,-1,45,47,-1,-1,-1,-1,-1,-1,49,51,53,-1,-1,-1,-1,55,-1,-1,-1,-1,-1,-1,-1,-1,-1,-1,-1],"loss_changes":[1.9982184E2,4.8690147E1,8.043112E1,1.0742996E1,2.0279306E1,8.564609E0,2.0175339E1,5.162796E0,8.273879E0,8.612482E0,8.034294E0,2.6070156E0,4.979273E0,6.8366594E0,1.4615768E1,0E0,3.9060364E0,5.5436683E0,0E0,1.5080242E0,0E0,5.6786985E0,8.186501E0,0E0,0E0,1.9219432E0,0E0,0E0,2.7185268E0,0E0,8.75592E0,3.6367798E0,0E0,0E0,0E0,0E0,0E0,0E0,6.49665E-1,2.4003687E0,3.7369587E0,0E0,0E0,0E0,0E0,3.0222778E0,0E0,0E0,0E0,0E0,0E0,0E0,0E0,0E0,0E0,0E0,0E0],"parents":[2147483647,0,0,1,1,2,2,3,3,4,4,5,5,6,6,7,7,8,8,9,9,10,10,11,11,12,12,13,13,14,14,16,16,17,17,19,19,21,21,22,22,25,25,28,28,30,30,31,31,38,38,39,39,40,40,45,45],"right_children":[2,4,6,8,10,12,14,16,18,20,22,24,26,28,30,-1,32,34,-1,36,-1,38,40,-1,-1,42,-1,-1,44,-1,46,48,-1,-1,-1,-1,-1,-1,50,52,54,-1,-1,-1,-1,56,-1,-1,-1,-1,-1,-1,-1,-1,-1,-1,-1],"split_conditions":[1.3483472E0,1.061405E0,1.1461229E0,5.333221E-1,6.1319035E-1,-1.5028927E-1,1.3229431E0,-2.5306451E0,-4.5443934E-1,2.1854335E-2,3.9956492E-1,-8.808573E-1,-9.651807E-1,1.5463363E-1,-9.1703963E-1,2.8454697E-2,9.6861726E-1,4.474953E-1,-5.978656E-2,3.6560905E-1,-1.8659342E-2,-1.0442278E0,1.270126E0,1.5194018E-2,-8.258056E-2,-6.15038E-1,-3.3574965E-2,-3.8202245E-2,9.846039E-1,-2.1105267E-2,-3.664205E-1,-1.5654081E0,1.3173148E-2,1.1280463E-1,-2.9796725E-2,1.857919E-1,9.6967E-3,1.0915816E-1,3.5141557E-2,-2.2312507E-1,7.0014066E-1,-6.087956E-3,1.1244547E-1,1.1695234E-1,-9.633485E-3,-9.1703284E-1,1.2612735E-2,-8.631777E-4,-1.0804416E-1,-3.726312E-2,1.2727523E-2,9.180992E-3,-8.807739E-2,8.798402E-2,-2.856808E-2,2.1903524E-2,2.9825366E-1],"split_indices":[120,751,751,206,405,376,17,305,48,240,638,444,103,559,723,0,619,284,0,270,0,654,9,0,0,328,0,0,452,0,730,177,0,0,0,0,0,0,304,10,584,0,0,0,0,137,0,0,0,0,0,0,0,0,0,0,0],"split_type":[0,0,0,0,0,0,0,0,0,0,0,0,0,0,0,0,0,0,0,0,0,0,0,0,0,0,0,0,0,0,0,0,0,0,0,0,0,0,0,0,0,0,0,0,0,0,0,0,0,0,0,0,0,0,0,0,0],"sum_hessian":[2.5311368E2,2.0430276E2,4.8810913E1,1.729833E2,3.1319447E1,1.7057669E1,3.1753244E1,1.6387064E2,9.112673E0,7.669269E0,2.3650179E1,1.222942E1,4.8282475E0,7.227911E0,2.4525333E1,1.0420172E0,1.6282863E2,4.293543E0,4.8191295E0,5.7880344E0,1.8812346E0,5.578223E0,1.8071955E1,1.6300883E0,1.0599332E1,2.9261923E0,1.9020555E0,3.4387743E0,3.7891366E0,1.0427793E0,2.3482553E1,1.6108876E2,1.7398617E0,2.675856E0,1.6176867E0,4.6701E0,1.1179343E0,2.3652868E0,3.2129362E0,1.4858428E1,3.2135274E0,1.0996264E0,1.8265657E0,2.512048E0,1.2770886E0,2.1800133E1,1.6824219E0,3.3110561E0,1.5777771E2,2.1975973E0,1.0153389E0,1.9283036E0,1.2930124E1,1.6996217E0,1.5139058E0,1.246742E0,2.055339E1],"tree_param":{"num_deleted":"0","num_feature":"768","num_nodes":"57","size_leaf_vector":"1"}},{"base_weights":[-3.175025E-1,-8.137715E-1,1.1911025E0,2.2882299E-1,-9.279661E-1,-1.9553694E-1,1.6601056E0,8.2872766E-1,-5.717414E-1,-9.852768E-1,4.5693436E-1,-4.616554E-1,6.530206E-2,1.9787124E0,5.8600638E-2,-1.9246723E-1,1.2610419E0,-6.881406E-2,1.2978777E-2,-1.0137486E0,5.080488E-2,9.4713056E-1,-3.8092133E-2,2.9773545E-1,-6.995407E-1,1.8415019E-1,2.2406445E0,-4.6187708E-1,5.799951E-1,2.8573835E-2,-4.3766305E-2,-9.427779E-3,1.4823452E0,-1.040587E0,8.7181725E-2,1.0694613E-1,6.7238584E-3,6.4439595E-2,-2.781911E-2,1.0614113E-2,-7.936431E-2,7.8779355E-2,-4.7947504E-2,2.3632512E0,-2.484444E-2,-3.5736058E-3,-4.916666E-2,-2.3741316E-2,8.60083E-2,1.6385122E-1,7.5432523E-3,9.201119E-3,-1.0629481E-1,-3.9114192E-2,5.998094E-2,4.0112052E-2,2.5721598E-1],"categories":[],"categories_nodes":[],"categories_segments":[],"categories_sizes":[],"default_left":[0,0,0,0,0,0,0,0,0,0,0,0,0,0,0,0,0,0,0,0,0,0,0,0,0,0,0,0,0,0,0,0,0,0,0,0,0,0,0,0,0,0,0,0,0,0,0,0,0,0,0,0,0,0,0,0,0],"id":2,"left_children":[1,3,5,7,9,11,13,15,17,19,21,23,-1,25,27,29,31,-1,-1,33,-1,35,-1,37,39,41,43,45,47,-1,-1,-1,49,51,53,-1,-1,-1,-1,-1,-1,-1,-1,55,-1,-1,-1,-1,-1,-1,-1,-1,-1,-1,-1,-1,-1],"loss_changes":[1.8931017E2,2.34887E1,4.2606102E1,1.3225988E1,1.5804428E1,6.1141467E0,2.3717072E1,7.819745E0,1.4789019E0,9.614441E0,5.993869E0,4.376028E0,0E0,1.6533936E1,4.881905E0,1.6557829E0,4.0506344E0,0E0,0E0,5.3032684E0,0E0,4.875927E-1,0E0,2.475656E0,1.6000533E0,6.089607E0,1.333519E1,3.0412197E-2,3.0214477E0,0E0,0E0,0E0,1.5584106E0,4.5567474E0,3.262045E0,0E0,0E0,0E0,0E0,0E0,0E0,0E0,0E0,8.34877E0,0E0,0E0,0E0,0E0,0E0,0E0,0E0,0E0,0E0,0E0,0E0,0E0,0E0],"parents":[2147483647,0,0,1,1,2,2,3,3,4,4,5,5,6,6,7,7,8,8,9,9,10,10,11,11,13,13,14,14,15,15,16,16,19,19,21,21,23,23,24,24,25,25,26,26,27,27,28,28,32,32,33,33,34,34,43,43],"right_children":[2,4,6,8,10,12,14,16,18,20,22,24,-1,26,28,30,32,-1,-1,34,-1,36,-1,38,40,42,44,46,48,-1,-1,-1,50,52,54,-1,-1,-1,-1,-1,-1,-1,-1,56,-1,-1,-1,-1,-1,-1,-1,-1,-1,-1,-1,-1,-1],"split_conditions":[1.136537E0,-1.1775279E0,1.9334994E-2,8.993086E-1,1.6985238E0,3.5448563E-1,-2.631305E-1,-1.4198353E0,3.117293E0,2.952809E0,3.327384E-1,-6.509661E-1,6.530206E-2,-6.7817605E-1,1.3166744E0,-4.7067374E-1,-6.718533E-2,-6.881406E-2,1.2978777E-2,1.4982274E0,5.080488E-2,5.1426448E-2,-3.8092133E-2,-1.3189089E0,-4.6403503E-1,-1.1931244E0,1.1101055E0,-8.8709784E-1,-3.128878E-3,2.8573835E-2,-4.3766305E-2,-9.427779E-3,2.8210145E-1,-1.2187912E0,-5.485708E-1,1.0694613E-1,6.7238584E-3,6.4439595E-2,-2.781911E-2,1.0614113E-2,-7.936431E-2,7.8779355E-2,-4.7947504E-2,7.4153207E-3,-2.484444E-2,-3.5736058E-3,-4.916666E-2,-2.3741316E-2,8.60083E-2,1.6385122E-1,7.5432523E-3,9.201119E-3,-1.0629481E-1,-3.9114192E-2,5.998094E-2,4.0112052E-2,2.5721598E-1],"split_indices":[751,509,679,628,121,426,140,340,203,392,88,683,0,370,644,687,315,0,0,9,0,763,0,354,465,216,739,206,614,0,0,0,384,528,606,0,0,0,0,0,0,0,0,163,0,0,0,0,0,0,0,0,0,0,0,0,0],"split_type":[0,0,0,0,0,0,0,0,0,0,0,0,0,0,0,0,0,0,0,0,0,0,0,0,0,0,0,0,0,0,0,0,0,0,0,0,0,0,0,0,0,0,0,0,0,0,0,0,0,0,0,0,0,0,0,0,0],"sum_hessian":[2.413873E2,1.8336926E2,5.8018044E1,1.7606188E1,1.6576308E2,1.54005785E1,4.2617462E1,9.963855E0,7.642333E0,1.6056142E2,5.2016535E0,1.3459326E1,1.9412532E0,3.4563633E1,8.05383E0,3.7885904E0,6.175264E0,6.6365986E0,1.0057347E0,1.5913312E2,1.4283032E0,2.8702648E0,2.3313887E0,2.9104517E0,1.0548874E1,5.486881E0,2.9076752E1,4.3160853E0,3.7377446E0,1.0039154E0,2.784675E0,1.2696337E0,4.9056306E0,1.5561365E2,3.5194747E0,1.5741768E0,1.2960879E0,1.4457817E0,1.46467E0,1.0363375E0,9.512536E0,2.3833866E0,3.1034942E0,2.7952648E1,1.1241043E0,1.0005956E0,3.3154898E0,1.1483142E0,2.5894303E0,3.6746662E0,1.2309642E0,2.7113075E0,1.5290234E2,2.4336302E0,1.0858446E0,4.09467E0,2.3857979E1],"tree_param":{"num_deleted":"0","num_feature":"768","num_nodes":"57","size_leaf_vector":"1"}},{"base_weights":[-2.561154E-1,-7.68191E-1,1.1264948E0,2.953389E-1,-9.0279156E-1,1.5606639E0,-2.8804225E-1,-5.734368E-1,8.6998564E-1,-9.4227886E-1,6.065098E-1,1.7410283E0,-2.4278271E-1,3.0791476E-1,-6.4488995E-1,-6.824488E-2,1.0425632E-2,1.2953913E0,-3.530098E-2,-6.504322E-2,-9.991289E-1,7.85687E-2,-6.3004806E-3,1.9136089E0,-1.1352287E-1,-4.725281E-2,2.6810927E-2,7.622323E-1,-4.1034106E-2,1.1911876E-2,-7.493975E-2,-2.4673268E-2,1.5615761E0,5.756918E-1,-5.5572015E-1,-1.142849E-1,-1.0388786E0,2.0236611E0,-8.944087E-2,4.1765027E-2,-4.4994783E-2,-1.3516903E-2,1.04572915E-1,-5.1458646E-3,1.7402689E-1,9.1394834E-2,-2.6661525E-2,-5.915262E-2,-3.432093E-3,-5.6802195E-2,5.5776186E-2,2.2147208E-2,-1.0586077E-1,2.1175726E-1,-3.7342203E-3,1.3040647E-2,-2.3196133E-2],"categories":[],"categories_nodes":[],"categories_segments":[],"categories_sizes":[],"default_left":[0,0,0,0,0,0,0,0,0,0,0,0,0,0,0,0,0,0,0,0,0,0,0,0,0,0,0,0,0,0,0,0,0,0,0,0,0,0,0,0,0,0,0,0,0,0,0,0,0,0,0,0,0,0,0,0,0],"id":3,"left_children":[1,3,5,7,9,11,13,15,17,19,21,23,25,27,29,-1,-1,31,-1,33,35,-1,-1,37,39,-1,-1,41,-1,-1,-1,-1,43,45,47,49,51,53,55,-1,-1,-1,-1,-1,-1,-1,-1,-1,-1,-1,-1,-1,-1,-1,-1,-1,-1],"loss_changes":[1.7722638E2,2.7269234E1,4.4027725E1,1.4536824E1,1.2515854E1,1.9298386E1,5.288206E0,1.2878308E0,1.0873367E1,7.64859E0,1.1080842E0,1.665393E1,1.7122912E0,5.1366E0,1.5840421E0,0E0,0E0,7.392601E0,0E0,6.3403482E0,4.675354E0,0E0,0E0,1.0776108E1,2.5230618E0,0E0,0E0,2.8581252E0,0E0,0E0,0E0,0E0,3.9176216E0,3.7812927E0,1.0541296E-1,5.261091E0,4.7217255E0,8.652054E0,3.743512E-1,0E0,0E0,0E0,0E0,0E0,0E0,0E0,0E0,0E0,0E0,0E0,0E0,0E0,0E0,0E0,0E0,0E0,0E0],"parents":[2147483647,0,0,1,1,2,2,3,3,4,4,5,5,6,6,7,7,8,8,9,9,10,10,11,11,12,12,13,13,14,14,17,17,19,19,20,20,23,23,24,24,27,27,32,32,33,33,34,34,35,35,36,36,37,37,38,38],"right_children":[2,4,6,8,10,12,14,16,18,20,22,24,26,28,30,-1,-1,32,-1,34,36,-1,-1,38,40,-1,-1,42,-1,-1,-1,-1,44,46,48,50,52,54,56,-1,-1,-1,-1,-1,-1,-1,-1,-1,-1,-1,-1,-1,-1,-1,-1,-1,-1],"split_conditions":[1.1461229E0,-1.1509044E0,-3.664205E-1,-1.6580908E-1,2.9196594E0,3.250594E-1,-1.2754164E0,4.085654E-1,5.3485703E-1,-8.808573E-1,-5.5975974E-1,6.658775E-1,5.105552E-1,1.5872537E0,-4.185548E0,-6.824488E-2,1.0425632E-2,-7.345842E-1,-3.530098E-2,-3.6312175E-1,-9.588026E-1,7.85687E-2,-6.3004806E-3,7.070693E-1,-1.1134311E0,-4.725281E-2,2.6810927E-2,-1.0184525E-1,-4.1034106E-2,1.1911876E-2,-7.493975E-2,-2.4673268E-2,-8.918555E-1,7.748118E-1,5.7795453E-1,3.4392166E-1,-8.638804E-1,4.886873E-1,-9.3820125E-1,4.1765027E-2,-4.4994783E-2,-1.3516903E-2,1.04572915E-1,-5.1458646E-3,1.7402689E-1,9.1394834E-2,-2.6661525E-2,-5.915262E-2,-3.432093E-3,-5.6802195E-2,5.5776186E-2,2.2147208E-2,-1.0586077E-1,2.1175726E-1,-3.7342203E-3,1.3040647E-2,-2.3196133E-2],"split_indices":[751,509,730,559,392,240,714,746,26,444,8,503,12,24,717,0,0,233,0,280,605,0,0,148,481,0,0,557,0,0,0,0,645,443,3,685,667,626,410,0,0,0,0,0,0,0,0,0,0,0,0,0,0,0,0,0,0],"split_type":[0,0,0,0,0,0,0,0,0,0,0,0,0,0,0,0,0,0,0,0,0,0,0,0,0,0,0,0,0,0,0,0,0,0,0,0,0,0,0,0,0,0,0,0,0,0,0,0,0,0,0,0,0,0,0,0,0],"sum_hessian":[2.3920816E2,1.7617896E2,6.3029217E1,1.9121538E1,1.570574E2,4.7831573E1,1.5197645E1,7.616744E0,1.1504794E1,1.5488367E2,2.1737378E0,4.3640137E1,4.1914372E0,5.948658E0,9.248987E0,6.5310836E0,1.0856608E0,8.316138E0,3.188656E0,1.0078952E1,1.4480472E2,1.0303946E0,1.1433433E0,3.977915E1,3.8609862E0,3.1502473E0,1.0411899E0,3.4563088E0,2.492349E0,1.0288047E0,8.220183E0,1.2779295E0,7.038209E0,3.9953928E0,6.0835595E0,7.05836E0,1.3774635E2,3.7658646E1,2.1205041E0,1.0290546E0,2.8319318E0,1.4577817E0,1.9985273E0,1.0569947E0,5.981214E0,2.547208E0,1.4481846E0,5.0633554E0,1.020204E0,4.675562E0,2.3827982E0,1.3349943E0,1.3641136E2,3.588622E1,1.772426E0,1.0011518E0,1.1193522E0],"tree_param":{"num_deleted":"0","num_feature":"768","num_nodes":"57","size_leaf_vector":"1"}},{"base_weights":[-2.0364366E-1,1.0476996E0,-7.389672E-1,1.9810108E-2,1.6397874E0,3.1329417E-1,-8.6564255E-1,1.0777401E0,-4.9619654E-1,1.389566E-1,1.8415914E0,7.8197986E-1,-3.8008934E-1,-3.7184447E-2,-9.4945496E-1,1.3067718E0,-6.266848E-3,2.575596E-1,-7.876683E-1,5.0373274E-1,-3.8259745E-2,1.9438233E0,-6.455333E-3,-2.9548872E-2,1.1440463E0,2.5847763E-2,-5.608309E-1,-5.30559E-1,5.630434E-1,-8.2122594E-2,-9.849633E-1,9.136176E-3,1.4000754E-1,6.91222E-1,-3.9794575E-2,-8.6975954E-2,7.910813E-3,7.357971E-1,-2.0809459E-2,2.0237617E0,5.5702426E-4,-4.697218E-3,1.3900973E0,-5.9809115E-2,-3.2101877E-3,-6.763683E-2,1.110779E-2,-2.9045949E-2,9.9406004E-1,5.976923E-2,-4.6651295E-1,-1.0229213E0,-1.6798244E-1,-1.15413405E-2,9.422933E-2,5.9327637E-3,8.2240626E-2,5.0424025E-3,2.0820378E-1,8.187822E-3,1.5207516E-1,1.14235535E-1,4.757559E-3,-4.968981E-2,-3.3491363E-3,-7.3762513E-3,-1.0576283E-1,-5.0008297E-2,4.8016265E-2],"categories":[],"categories_nodes":[],"categories_segments":[],"categories_sizes":[],"default_left":[0,0,0,0,0,0,0,0,0,0,0,0,0,0,0,0,0,0,0,0,0,0,0,0,0,0,0,0,0,0,0,0,0,0,0,0,0,0,0,0,0,0,0,0,0,0,0,0,0,0,0,0,0,0,0,0,0,0,0,0,0,0,0,0,0,0,0,0,0],"id":4,"left_children":[1,3,5,7,9,11,13,15,17,19,21,23,25,27,29,31,-1,33,35,37,-1,39,-1,-1,41,-1,43,45,47,49,51,-1,-1,53,-1,-1,-1,55,-1,57,-1,-1,59,-1,-1,-1,-1,-1,61,-1,63,65,67,-1,-1,-1,-1,-1,-1,-1,-1,-1,-1,-1,-1,-1,-1,-1,-1],"loss_changes":[1.620901E2,4.4165817E1,2.3797142E1,1.9969128E1,1.2699356E1,8.557962E0,1.0349472E1,3.534113E0,6.4451013E0,3.0332654E0,8.475861E0,7.3936396E0,2.1260982E0,7.159098E0,3.8291245E0,5.1613235E-1,0E0,4.4059467E0,1.7000933E0,2.1795456E0,0E0,5.8912354E0,0E0,0E0,3.8339977E0,0E0,1.2149978E-1,1.5988533E0,5.511145E0,4.232343E0,3.2219696E0,0E0,0E0,2.2131834E0,0E0,0E0,0E0,1.9882584E-1,0E0,3.7129974E0,0E0,0E0,1.1008663E0,0E0,0E0,0E0,0E0,0E0,9.1812325E-1,0E0,4.5027256E-2,3.720398E0,3.746013E0,0E0,0E0,0E0,0E0,0E0,0E0,0E0,0E0,0E0,0E0,0E0,0E0,0E0,0E0,0E0,0E0],"parents":[2147483647,0,0,1,1,2,2,3,3,4,4,5,5,6,6,7,7,8,8,9,9,10,10,11,11,12,12,13,13,14,14,15,15,17,17,18,18,19,19,21,21,24,24,26,26,27,27,28,28,29,29,30,30,33,33,37,37,39,39,42,42,48,48,50,50,51,51,52,52],"right_children":[2,4,6,8,10,12,14,16,18,20,22,24,26,28,30,32,-1,34,36,38,-1,40,-1,-1,42,-1,44,46,48,50,52,-1,-1,54,-1,-1,-1,56,-1,58,-1,-1,60,-1,-1,-1,-1,-1,62,-1,64,66,68,-1,-1,-1,-1,-1,-1,-1,-1,-1,-1,-1,-1,-1,-1,-1,-1],"split_conditions":[-1.0630108E0,-3.8098338E-1,-3.2945797E-1,-6.100311E-1,1.2029145E0,3.093354E-1,-1.1509044E0,-1.7329219E-1,-3.9480275E-1,9.0592265E-1,1.0832555E0,-8.549455E-3,-6.201246E-1,1.0511124E0,-8.370474E-1,2.877816E-1,-6.266848E-3,-4.297073E-1,1.3597023E0,2.5003433E-1,-3.8259745E-2,-2.6205528E-1,-6.455333E-3,-2.9548872E-2,5.506489E-1,2.5847763E-2,3.7176853E-1,1.5239376E0,-1.0917073E0,-8.308724E-1,1.4483246E0,9.136176E-3,1.4000754E-1,6.787764E-1,-3.9794575E-2,-8.6975954E-2,7.910813E-3,3.2832676E-1,-2.0809459E-2,-2.8621966E-1,5.5702426E-4,-4.697218E-3,2.2830291E-1,-5.9809115E-2,-3.2101877E-3,-6.763683E-2,1.110779E-2,-2.9045949E-2,2.5332114E-1,5.976923E-2,2.7237877E-1,-1.465025E0,7.6283115E-1,-1.15413405E-2,9.422933E-2,5.9327637E-3,8.2240626E-2,5.0424025E-3,2.0820378E-1,8.187822E-3,1.5207516E-1,1.14235535E-1,4.757559E-3,-4.968981E-2,-3.3491363E-3,-7.3762513E-3,-1.0576283E-1,-5.0008297E-2,4.8016265E-2],"split_indices":[660,293,555,555,17,178,509,208,659,648,365,160,236,347,287,562,0,383,483,472,0,583,0,0,753,0,746,534,167,127,404,0,0,347,0,0,0,60,0,445,0,0,436,0,0,0,0,0,196,0,14,520,701,0,0,0,0,0,0,0,0,0,0,0,0,0,0,0,0],"split_type":[0,0,0,0,0,0,0,0,0,0,0,0,0,0,0,0,0,0,0,0,0,0,0,0,0,0,0,0,0,0,0,0,0,0,0,0,0,0,0,0,0,0,0,0,0,0,0,0,0,0,0,0,0,0,0,0,0,0,0,0,0,0,0,0,0,0,0,0,0],"sum_hessian":[2.3119243E2,6.78363E1,1.6335612E2,2.6682192E1,4.115411E1,1.6760952E1,1.4659517E2,6.9631276E0,1.9719065E1,5.878454E0,3.5275654E1,9.619724E0,7.141227E0,1.4131201E1,1.3246397E2,5.191168E0,1.7719595E0,5.6610727E0,1.4057992E1,3.5596645E0,2.3187897E0,3.3386223E1,1.8894329E0,2.650764E0,6.968961E0,1.1009719E0,6.0402546E0,8.074492E0,6.0567083E0,5.8612022E0,1.2660277E2,1.0756227E0,4.1155453E0,3.2431004E0,2.4179726E0,1.2826046E1,1.2319461E0,2.5575151E0,1.0021492E0,3.1851986E1,1.5342358E0,1.885861E0,5.0830994E0,5.029861E0,1.0103937E0,6.358829E0,1.7156638E0,2.5794299E0,3.4772782E0,1.1148976E0,4.7463045E0,1.1977738E2,6.8253884E0,1.4111083E0,1.8319921E0,1.2465134E0,1.3110018E0,1.1811843E0,3.0670801E1,1.2000998E0,3.8829997E0,2.11169E0,1.3655884E0,3.745888E0,1.0004164E0,4.776521E0,1.15000854E2,5.268223E0,1.5571654E0],"tree_param":{"num_deleted":"0","num_feature":"768","num_nodes":"69","size_leaf_vector":"1"}},{"base_weights":[-1.7459773E-1,8.292986E-1,-7.000733E-1,1.2520441E0,-3.0277848E-1,3.3746067E-2,-9.126913E-1,1.4026514E0,-2.293687E-1,2.9495662E-1,-6.695519E-1,9.737675E-1,-4.068281E-1,-9.810866E-1,2.9715277E-2,1.5440024E0,1.4089325E-1,-4.9248546E-2,2.9613156E-2,-4.7118522E-2,7.6908123E-1,-7.964728E-2,1.4152831E-2,-2.6297046E-2,1.2241178E0,3.0427882E-1,-6.7039204E-1,-9.971275E-1,1.1503662E-2,-5.0315678E-2,5.333096E-1,1.6462216E0,3.8730722E-2,5.742979E-2,-3.1025958E-1,-1.611665E-2,1.0551586E-1,1.3787879E0,-6.592688E-3,8.664446E-2,-3.3900824E-1,-7.742715E-1,2.7428964E-2,-1.0129517E0,1.0343298E-2,8.569049E-1,-2.6266191E-2,1.7332852E-1,-8.38101E-3,-3.7450872E-2,4.7785062E-2,-4.4399664E-2,1.191199E-2,7.71084E-3,1.4772186E-1,-4.461782E-2,8.644245E-3,7.5033973E-3,-8.431808E-2,-1.02961116E-1,7.765308E-3,8.115126E-3,9.276451E-2],"categories":[],"categories_nodes":[],"categories_segments":[],"categories_sizes":[],"default_left":[0,0,0,0,0,0,0,0,0,0,0,0,0,0,0,0,0,0,0,0,0,0,0,0,0,0,0,0,0,0,0,0,0,0,0,0,0,0,0,0,0,0,0,0,0,0,0,0,0,0,0,0,0,0,0,0,0,0,0,0,0,0,0],"id":5,"left_children":[1,3,5,7,9,11,13,15,17,19,21,23,25,27,29,31,33,-1,-1,-1,35,-1,-1,-1,37,39,41,43,-1,-1,45,47,49,-1,51,-1,-1,53,-1,-1,55,57,-1,59,-1,61,-1,-1,-1,-1,-1,-1,-1,-1,-1,-1,-1,-1,-1,-1,-1,-1,-1],"loss_changes":[1.24144104E2,4.078311E1,2.411525E1,1.5025864E1,6.7136726E0,1.8266148E1,7.832329E0,8.773323E0,2.090711E0,6.6806183E0,2.3873558E0,5.9509716E0,6.698923E0,2.531021E0,4.8093696E0,7.254257E0,3.0558467E0,0E0,0E0,0E0,3.5591707E0,0E0,0E0,0E0,2.957716E0,5.6754527E0,3.384468E0,2.4437866E0,0E0,0E0,3.4617863E0,7.650116E0,2.3918922E0,0E0,7.623787E-1,0E0,0E0,8.950176E-1,0E0,0E0,6.04061E-1,1.6408148E0,0E0,2.3827438E0,0E0,4.1879654E-2,0E0,0E0,0E0,0E0,0E0,0E0,0E0,0E0,0E0,0E0,0E0,0E0,0E0,0E0,0E0,0E0,0E0],"parents":[2147483647,0,0,1,1,2,2,3,3,4,4,5,5,6,6,7,7,8,8,9,9,10,10,11,11,12,12,13,13,14,14,15,15,16,16,20,20,24,24,25,25,26,26,27,27,30,30,31,31,32,32,34,34,37,37,40,40,41,41,43,43,45,45],"right_children":[2,4,6,8,10,12,14,16,18,20,22,24,26,28,30,32,34,-1,-1,-1,36,-1,-1,-1,38,40,42,44,-1,-1,46,48,50,-1,52,-1,-1,54,-1,-1,56,58,-1,60,-1,62,-1,-1,-1,-1,-1,-1,-1,-1,-1,-1,-1,-1,-1,-1,-1,-1,-1],"split_conditions":[-1.3429953E0,-7.9517806E-1,-1.1070318E0,-3.6400455E-1,-7.9085514E-2,-2.4134193E-1,4.8674288E-1,-3.632833E-3,-4.2052624E-1,3.5104208E-2,5.603272E-1,4.7906795E-1,-4.1304058E-1,2.6704164E0,9.565161E-1,1.2435663E0,-1.2561327E0,-4.9248546E-2,2.9613156E-2,-4.7118522E-2,1.0843556E0,-7.964728E-2,1.4152831E-2,-2.6297046E-2,8.5864335E-1,1.5514895E-1,1.5689666E0,2.14446E0,1.1503662E-2,-5.0315678E-2,4.9316362E-1,1.3847396E0,7.067575E-1,5.742979E-2,1.2230126E-1,-1.611665E-2,1.0551586E-1,-1.2075576E0,-6.592688E-3,8.664446E-2,1.3550291E0,4.6945337E-2,2.7428964E-2,1.5084839E0,1.0343298E-2,-7.576079E-1,-2.6266191E-2,1.7332852E-1,-8.38101E-3,-3.7450872E-2,4.7785062E-2,-4.4399664E-2,1.191199E-2,7.71084E-3,1.4772186E-1,-4.461782E-2,8.644245E-3,7.5033973E-3,-8.431808E-2,-1.02961116E-1,7.765308E-3,8.115126E-3,9.276451E-2],"split_indices":[348,274,274,486,364,166,547,74,249,545,371,464,266,707,518,756,14,0,0,0,702,0,0,0,516,636,452,567,0,0,335,214,679,0,454,0,0,671,0,0,697,644,0,719,0,161,0,0,0,0,0,0,0,0,0,0,0,0,0,0,0,0,0],"split_type":[0,0,0,0,0,0,0,0,0,0,0,0,0,0,0,0,0,0,0,0,0,0,0,0,0,0,0,0,0,0,0,0,0,0,0,0,0,0,0,0,0,0,0,0,0,0,0,0,0,0,0,0,0,0,0,0,0,0,0,0,0,0,0],"sum_hessian":[2.2483118E2,7.6256256E1,1.4857492E2,5.513692E1,2.1119337E1,3.4322468E1,1.1425246E2,5.0290035E1,4.846886E0,8.403342E0,1.2715995E1,9.021922E0,2.5300545E1,1.063303E2,7.922157E0,4.421797E1,6.072063E0,3.439076E0,1.4078102E0,3.2242491E0,5.179093E0,1.1073258E1,1.6427367E0,1.4764019E0,7.5455203E0,6.632737E0,1.8667809E1,1.0524175E2,1.0885515E0,3.8512976E0,4.070859E0,4.0967766E1,3.2502062E0,2.400865E0,3.671198E0,1.7315897E0,3.4475033E0,6.4305725E0,1.1149479E0,2.6139274E0,4.01881E0,1.7631004E1,1.0368034E0,1.0414237E2,1.0993805E0,2.622104E0,1.4487551E0,3.89959E1,1.9718659E0,2.0534606E0,1.1967456E0,2.6695204E0,1.0016774E0,1.0789591E0,5.3516135E0,3.0155942E0,1.0032156E0,1.2898026E0,1.6341202E1,1.0285092E2,1.2914473E0,1.1163048E0,1.5057992E0],"tree_param":{"num_deleted":"0","num_feature":"768","num_nodes":"63","size_leaf_vector":"1"}},{"base_weights":[-2.1663861E-1,9.4116783E-1,-6.3084507E-1,1.3382021E0,1.421633E-1,5.437993E-1,-8.157165E-1,1.4389293E0,-2.860995E-2,7.08165E-1,-4.1656065E-1,9.2537004E-1,-3.865276E-1,-8.5437334E-1,3.1257665E-1,-5.6498037E-3,1.5210538E0,1.0207566E0,-1.5410759E-1,3.7116185E-2,-6.062633E-1,1.171139E0,-2.6829172E-2,-5.7882156E-2,2.4658984E-2,-2.2141911E-1,-9.3471444E-1,6.4218976E-2,-2.7319599E-2,1.601608E0,-1.5071194E-2,-6.528829E-3,1.1635247E0,2.4419619E-2,-3.798406E-2,1.7444886E-2,-7.555773E-2,1.3788257E0,-2.6000967E-2,-6.314122E-1,3.3181012E-1,-9.686695E-1,1.1104735E-1,1.6474079E-1,4.891772E-3,9.85332E-3,1.2309431E-1,1.578373E-1,-4.3746815E-3,-7.3205605E-2,1.1809186E-2,7.34217E-2,-4.069749E-2,-9.910114E-2,1.5324675E-2,-2.8813893E-2,4.2718895E-2],"categories":[],"categories_nodes":[],"categories_segments":[],"categories_sizes":[],"default_left":[0,0,0,0,0,0,0,0,0,0,0,0,0,0,0,0,0,0,0,0,0,0,0,0,0,0,0,0,0,0,0,0,0,0,0,0,0,0,0,0,0,0,0,0,0,0,0,0,0,0,0,0,0,0,0,0,0],"id":6,"left_children":[1,3,5,7,9,11,13,15,-1,17,19,21,23,25,27,-1,29,31,33,-1,35,37,-1,-1,-1,39,41,-1,-1,43,-1,-1,45,-1,-1,-1,-1,47,-1,49,51,53,55,-1,-1,-1,-1,-1,-1,-1,-1,-1,-1,-1,-1,-1,-1],"loss_changes":[1.0731538E2,1.7872429E1,3.7668198E1,8.446655E0,9.473188E0,1.0733615E1,7.5744934E0,5.04673E0,0E0,4.672172E0,3.4974859E0,7.245531E0,2.035319E0,6.0666122E0,2.4989529E0,0E0,6.0302734E0,2.122017E0,1.1992193E0,0E0,2.3718624E0,6.8371754E0,0E0,0E0,0E0,6.101366E0,4.8829575E0,0E0,0E0,2.0575867E0,0E0,0E0,1.2565327E-1,0E0,0E0,0E0,0E0,4.777754E0,0E0,1.5275097E0,5.287942E0,3.7430038E0,1.6671907E0,0E0,0E0,0E0,0E0,0E0,0E0,0E0,0E0,0E0,0E0,0E0,0E0,0E0,0E0],"parents":[2147483647,0,0,1,1,2,2,3,3,4,4,5,5,6,6,7,7,9,9,10,10,11,11,12,12,13,13,14,14,16,16,17,17,18,18,20,20,21,21,25,25,26,26,29,29,32,32,37,37,39,39,40,40,41,41,42,42],"right_children":[2,4,6,8,10,12,14,16,-1,18,20,22,24,26,28,-1,30,32,34,-1,36,38,-1,-1,-1,40,42,-1,-1,44,-1,-1,46,-1,-1,-1,-1,48,-1,50,52,54,56,-1,-1,-1,-1,-1,-1,-1,-1,-1,-1,-1,-1,-1,-1],"split_conditions":[-1.1146116E0,-2.3993237E-1,-3.2945797E-1,1.7306628E0,-4.1219804E-1,-1.166144E0,2.6657898E0,-5.8658993E-1,-2.860995E-2,-4.134818E-1,-8.437257E-1,4.1603044E-1,8.483703E-1,-1.4773113E0,-8.3244497E-1,-5.6498037E-3,1.2471149E0,-1.3804406E0,-5.208631E-1,3.7116185E-2,-1.9033386E-1,1.3855728E0,-2.6829172E-2,-5.7882156E-2,2.4658984E-2,5.0349284E-2,1.071415E0,6.4218976E-2,-2.7319599E-2,1.3731866E0,-1.5071194E-2,-6.528829E-3,5.3387904E-1,2.4419619E-2,-3.798406E-2,1.7444886E-2,-7.555773E-2,8.3709836E-1,-2.6000967E-2,3.333673E-1,-2.1245144E-1,1.8999223E0,1.7954707E-1,1.6474079E-1,4.891772E-3,9.85332E-3,1.2309431E-1,1.578373E-1,-4.3746815E-3,-7.3205605E-2,1.1809186E-2,7.34217E-2,-4.069749E-2,-9.910114E-2,1.5324675E-2,-2.8813893E-2,4.2718895E-2],"split_indices":[509,253,555,362,140,250,147,218,0,553,18,287,230,348,252,0,675,92,304,0,540,157,0,0,0,20,113,0,0,214,0,0,9,0,0,0,0,560,0,273,730,121,139,0,0,0,0,0,0,0,0,0,0,0,0,0,0],"split_type":[0,0,0,0,0,0,0,0,0,0,0,0,0,0,0,0,0,0,0,0,0,0,0,0,0,0,0,0,0,0,0,0,0,0,0,0,0,0,0,0,0,0,0,0,0,0,0,0,0,0,0,0,0,0,0,0,0],"sum_hessian":[2.125835E2,5.433712E1,1.5824637E2,3.40454E1,2.0291721E1,2.0198803E1,1.3804758E2,3.2594734E1,1.4506648E0,9.415866E0,1.0875855E1,1.4342791E1,5.856012E0,1.3464821E2,3.3993592E0,1.778042E0,3.0816692E1,6.2361445E0,3.1797209E0,1.1825786E0,9.693276E0,1.1972131E1,2.370659E0,4.8206544E0,1.0353576E0,1.7281181E1,1.1736703E2,1.8671539E0,1.5322053E0,2.960023E1,1.2164615E0,1.0398024E0,5.1963425E0,1.0022678E0,2.177453E0,1.4211087E0,8.272168E0,1.0614559E1,1.3575722E0,9.51965E0,7.761531E0,1.1403306E2,3.3339689E0,2.8455854E1,1.1443753E0,1.0421013E0,4.154241E0,8.828557E0,1.7860019E0,8.495295E0,1.0243556E0,5.0446754E0,2.7168553E0,1.1237855E2,1.6545131E0,1.6691921E0,1.6647769E0],"tree_param":{"num_deleted":"0","num_feature":"768","num_nodes":"57","size_leaf_vector":"1"}},{"base_weights":[-2.0549415E-1,-7.0157343E-1,7.4403834E-1,-8.642872E-2,-8.816819E-1,1.0076997E0,-2.5802442E-1,6.789998E-1,-4.5245826E-1,2.0802794E-1,-9.3626976E-1,1.5731595E-1,1.2448308E0,4.874863E-1,-5.3068E-1,9.792504E-1,-3.2856997E-2,-6.988328E-1,5.390429E-1,7.140373E-2,-3.8121235E-2,1.17179744E-1,-9.689725E-1,-5.749477E-2,5.3855574E-1,1.3608439E0,-3.4754537E-2,-1.2400067E-2,7.0939474E-2,-7.528102E-2,2.0853944E-1,1.187729E0,-2.0273548E-2,-8.723847E-1,4.0985912E-2,-2.5273768E-2,8.770951E-2,-2.7574388E-2,4.4973385E-2,-4.5808416E-2,-1.0026416E0,7.9514176E-1,-3.3324737E-2,1.4378396E0,-2.404384E-2,-4.0593553E-2,4.1126516E-2,5.392304E-2,-2.6837273E-2,-6.402495E-3,1.3471161E-1,-9.031007E-2,-3.4089244E-3,4.1020747E-2,-3.8969543E-2,-1.0308637E-1,1.9842096E-2,-2.2378568E-2,9.755252E-2,1.522869E-1,8.708632E-3],"categories":[],"categories_nodes":[],"categories_segments":[],"categories_sizes":[],"default_left":[0,0,0,0,0,0,0,0,0,0,0,0,0,0,0,0,0,0,0,0,0,0,0,0,0,0,0,0,0,0,0,0,0,0,0,0,0,0,0,0,0,0,0,0,0,0,0,0,0,0,0,0,0,0,0,0,0,0,0,0,0],"id":7,"left_children":[1,3,5,7,9,11,13,15,17,19,21,23,25,27,29,31,-1,33,35,-1,-1,37,39,-1,41,43,45,-1,-1,-1,47,49,-1,51,-1,-1,-1,-1,-1,53,55,57,-1,59,-1,-1,-1,-1,-1,-1,-1,-1,-1,-1,-1,-1,-1,-1,-1,-1,-1],"loss_changes":[1.0224959E2,1.52977295E1,2.1119553E1,1.20686245E1,7.4529953E0,1.1202343E1,5.2789884E0,5.8928003E0,8.828992E0,4.1300206E0,4.1724167E0,6.823157E0,7.1412888E0,1.5059297E0,3.5354257E0,4.201928E0,0E0,6.5886955E0,3.378591E0,0E0,0E0,1.6145697E0,2.9414215E0,0E0,4.681986E0,7.0018997E0,2.2820125E0,0E0,0E0,0E0,1.951469E0,2.6400547E0,0E0,4.4272423E-1,0E0,0E0,0E0,0E0,0E0,2.1838794E0,4.3511353E0,3.4940853E0,0E0,4.106209E0,0E0,0E0,0E0,0E0,0E0,0E0,0E0,0E0,0E0,0E0,0E0,0E0,0E0,0E0,0E0,0E0,0E0],"parents":[2147483647,0,0,1,1,2,2,3,3,4,4,5,5,6,6,7,7,8,8,9,9,10,10,11,11,12,12,13,13,14,14,15,15,17,17,18,18,21,21,22,22,24,24,25,25,26,26,30,30,31,31,33,33,39,39,40,40,41,41,43,43],"right_children":[2,4,6,8,10,12,14,16,18,20,22,24,26,28,30,32,-1,34,36,-1,-1,38,40,-1,42,44,46,-1,-1,-1,48,50,-1,52,-1,-1,-1,-1,-1,54,56,58,-1,60,-1,-1,-1,-1,-1,-1,-1,-1,-1,-1,-1,-1,-1,-1,-1,-1,-1],"split_conditions":[1.061405E0,-7.512464E-1,-3.3346093E-1,-9.8852223E-1,-1.3415949E0,-1.09733656E-1,-9.296577E-1,3.269645E-1,-1.9744429E-1,5.881609E-1,-1.6252165E0,-7.802949E-1,1.377823E0,-6.558659E-1,-4.636054E-1,-6.760872E-1,-3.2856997E-2,3.117293E0,-4.887772E-1,7.140373E-2,-3.8121235E-2,7.725129E-1,-1.7851965E0,-5.749477E-2,6.151119E-1,2.9940334E-1,3.0131918E-1,-1.2400067E-2,7.0939474E-2,-7.528102E-2,-2.1616979E0,-1.4202254E0,-2.0273548E-2,7.121159E-1,4.0985912E-2,-2.5273768E-2,8.770951E-2,-2.7574388E-2,4.4973385E-2,1.3863267E-1,1.5802361E0,3.4527004E-1,-3.3324737E-2,3.1255786E0,-2.404384E-2,-4.0593553E-2,4.1126516E-2,5.392304E-2,-2.6837273E-2,-6.402495E-3,1.3471161E-1,-9.031007E-2,-3.4089244E-3,4.1020747E-2,-3.8969543E-2,-1.0308637E-1,1.9842096E-2,-2.2378568E-2,9.755252E-2,1.522869E-1,8.708632E-3],"split_indices":[751,509,730,378,378,432,316,444,594,313,622,741,638,617,59,680,0,203,645,0,0,27,59,0,26,684,327,0,0,0,478,706,0,633,0,0,0,0,0,675,122,311,0,211,0,0,0,0,0,0,0,0,0,0,0,0,0,0,0,0,0],"split_type":[0,0,0,0,0,0,0,0,0,0,0,0,0,0,0,0,0,0,0,0,0,0,0,0,0,0,0,0,0,0,0,0,0,0,0,0,0,0,0,0,0,0,0,0,0,0,0,0,0,0,0,0,0,0,0,0,0,0,0,0,0],"sum_hessian":[2.0652957E2,1.3651407E2,7.001551E1,3.2593426E1,1.0392064E2,5.5408398E1,1.460711E1,9.161016E0,2.343241E1,4.2869987E0,9.963364E1,1.3895248E1,4.151315E1,2.856662E0,1.1750448E1,7.1660914E0,1.9949257E0,1.9950792E1,3.4816158E0,1.7366703E0,2.5503285E0,2.61097E0,9.702267E1,3.8876233E0,1.0007626E1,3.777113E1,3.7420216E0,1.348047E0,1.508615E0,8.964696E0,2.7857525E0,6.070995E0,1.0950963E0,1.817191E1,1.7788832E0,1.4192727E0,2.0623431E0,1.588388E0,1.022582E0,3.8293445E0,9.319332E1,8.0716715E0,1.9359543E0,3.6525208E1,1.245922E0,2.2876096E0,1.4544121E0,1.2592422E0,1.5265102E0,1.0236024E0,5.0473924E0,1.7156742E1,1.015168E0,1.231724E0,2.5976205E0,9.174605E1,1.4472789E0,1.0330807E0,7.0385904E0,3.376275E1,2.76246E0],"tree_param":{"num_deleted":"0","num_feature":"768","num_nodes":"61","size_leaf_vector":"1"}},{"base_weights":[-1.7051107E-1,5.731676E-1,-6.7136484E-1,8.4428126E-1,-5.0288993E-1,5.745577E-1,-7.864885E-1,1.0458183E0,-7.3841654E-2,2.5733483E-1,-7.1173185E-1,-3.4463137E-2,1.0380471E0,-9.05457E-1,-1.0356841E-1,-3.654925E-2,1.1623409E0,-5.3866875E-1,5.0857264E-1,-2.8118769E-2,5.9810348E-2,1.0857026E-2,-8.001467E-2,1.2208338E-1,-6.9049518E-3,-9.3267107E-1,1.8837197E-2,-5.322352E-1,5.3309375E-1,1.2334014E0,-2.4380183E-2,-6.4842366E-2,1.0591513E-2,-1.5000689E-1,7.869493E-2,5.2082203E-3,-9.9534845E-1,-6.6050494E-1,2.0762717E-2,-3.247302E-2,8.7455744E-1,-1.3444391E-2,1.3047649E-1,7.851195E-3,-2.4993356E-2,5.1724352E-2,-4.5623597E-2,-1.0156001E-1,7.3306933E-3,8.651498E-3,-7.485059E-2,-1.04894405E-2,1.0972955E-1],"categories":[],"categories_nodes":[],"categories_segments":[],"categories_sizes":[],"default_left":[0,0,0,0,0,0,0,0,0,0,0,0,0,0,0,0,0,0,0,0,0,0,0,0,0,0,0,0,0,0,0,0,0,0,0,0,0,0,0,0,0,0,0,0,0,0,0,0,0,0,0,0,0],"id":8,"left_children":[1,3,5,7,9,11,13,15,17,19,21,-1,23,25,27,-1,29,31,33,-1,-1,-1,-1,-1,-1,35,-1,37,39,41,-1,-1,-1,43,-1,45,47,49,-1,-1,51,-1,-1,-1,-1,-1,-1,-1,-1,-1,-1,-1,-1],"loss_changes":[7.761127E1,2.6766901E1,2.0006218E1,1.321661E1,4.112329E0,7.478273E0,8.904648E0,1.1528862E1,6.0130334E0,2.3110502E0,1.6761999E0,0E0,2.4702682E0,3.78405E0,7.6308956E0,0E0,6.901642E0,1.1899941E0,2.4574256E0,0E0,0E0,0E0,0E0,0E0,0E0,5.6739044E0,0E0,2.21412E0,4.8345356E0,5.9774323E0,0E0,0E0,0E0,2.6310763E-1,0E0,3.7772334E0,2.32193E0,1.3047037E0,0E0,0E0,2.6899066E0,0E0,0E0,0E0,0E0,0E0,0E0,0E0,0E0,0E0,0E0,0E0,0E0],"parents":[2147483647,0,0,1,1,2,2,3,3,4,4,5,5,6,6,7,7,8,8,9,9,10,10,12,12,13,13,14,14,16,16,17,17,18,18,25,25,27,27,28,28,29,29,33,33,35,35,36,36,37,37,40,40],"right_children":[2,4,6,8,10,12,14,16,18,20,22,-1,24,26,28,-1,30,32,34,-1,-1,-1,-1,-1,-1,36,-1,38,40,42,-1,-1,-1,44,-1,46,48,50,-1,-1,52,-1,-1,-1,-1,-1,-1,-1,-1,-1,-1,-1,-1],"split_conditions":[-8.781009E-1,-2.4615638E-2,-1.4301822E0,3.6870903E-1,-8.8122684E-1,-7.2181866E-2,1.0058836E0,-5.825502E-1,-3.3140796E-1,-4.118899E-1,-1.3939371E0,-3.4463137E-2,2.3111881E-1,1.2447158E0,7.675257E-1,-3.654925E-2,1.5824016E0,1.6670511E0,6.6380605E-2,-2.8118769E-2,5.9810348E-2,1.0857026E-2,-8.001467E-2,1.2208338E-1,-6.9049518E-3,-4.540156E-1,1.8837197E-2,2.6047414E-3,2.6746285E-1,-1.0670676E0,-2.4380183E-2,-6.4842366E-2,1.0591513E-2,8.984326E-1,7.869493E-2,6.479353E-1,5.508121E-1,-1.0150557E0,2.0762717E-2,-3.247302E-2,7.175469E-1,-1.3444391E-2,1.3047649E-1,7.851195E-3,-2.4993356E-2,5.1724352E-2,-4.5623597E-2,-1.0156001E-1,7.3306933E-3,8.651498E-3,-7.485059E-2,-1.04894405E-2,1.0972955E-1],"split_indices":[660,583,177,287,730,559,751,463,603,387,109,0,579,679,198,0,609,563,432,0,0,0,0,0,0,166,0,480,356,741,0,0,0,107,0,631,92,586,0,0,440,0,0,0,0,0,0,0,0,0,0,0,0],"split_type":[0,0,0,0,0,0,0,0,0,0,0,0,0,0,0,0,0,0,0,0,0,0,0,0,0,0,0,0,0,0,0,0,0,0,0,0,0,0,0,0,0,0,0,0,0,0,0,0,0,0,0,0,0],"sum_hessian":[1.9820126E2,7.947425E1,1.1872701E2,6.434056E1,1.513369E1,8.354687E0,1.1037232E2,5.2189117E1,1.2151443E1,3.011232E0,1.2122458E1,3.2303953E0,5.1242914E0,9.260986E1,1.776246E1,3.165501E0,4.9023613E1,6.966781E0,5.1846614E0,1.5058018E0,1.5054301E0,1.0685709E0,1.1053887E1,3.9572568E0,1.1670347E0,9.108048E1,1.529382E0,1.1105322E1,6.6571383E0,4.7250034E1,1.7735802E0,5.9276767E0,1.0391045E0,2.2254376E0,2.959224E0,5.9926977E0,8.508778E1,9.921529E0,1.1837937E0,1.9651984E0,4.6919403E0,2.1237545E0,4.5126278E1,1.003071E0,1.2223667E0,2.5540333E0,3.4386647E0,8.374893E1,1.3388553E0,1.054505E0,8.867023E0,1.3594294E0,3.3325107E0],"tree_param":{"num_deleted":"0","num_feature":"768","num_nodes":"53","size_leaf_vector":"1"}},{"base_weights":[-1.2872288E-1,6.425039E-1,-6.459108E-1,8.88198E-1,-2.6843974E-1,-8.684162E-1,-1.0435242E-1,6.881761E-2,1.0697515E0,4.6176898E-1,-6.370895E-1,-9.278752E-1,1.01149656E-1,-6.757092E-1,3.766981E-1,6.563453E-1,-5.22002E-1,-2.470336E-2,1.1237726E0,8.0885696E-1,-3.0162573E-2,1.5229441E-2,-7.68798E-2,-9.608754E-1,1.6416745E-2,-3.91923E-2,5.9108283E-2,2.500523E-2,-7.9422146E-1,-2.5417507E-1,9.059813E-1,-1.4928281E-2,8.636194E-2,6.537888E-3,-6.1585404E-2,1.2507578E0,1.2263305E-1,4.6287547E-3,9.2811726E-2,6.4310625E-2,-9.9335027E-1,-3.5773485E-3,-8.264083E-2,3.2073334E-1,-5.330305E-1,1.2145476E0,-1.6829522E-1,-1.8238772E-2,1.3134545E-1,5.4957595E-2,-3.4605037E-2,2.8758148E-2,-2.0792417E-2,-2.1951522E-3,-1.0168195E-1,-2.5253803E-2,6.254467E-2,-6.445991E-2,1.1929888E-2,-7.7043385E-3,1.3894337E-1,1.14271315E-2,-2.9563809E-2],"categories":[],"categories_nodes":[],"categories_segments":[],"categories_sizes":[],"default_left":[0,0,0,0,0,0,0,0,0,0,0,0,0,0,0,0,0,0,0,0,0,0,0,0,0,0,0,0,0,0,0,0,0,0,0,0,0,0,0,0,0,0,0,0,0,0,0,0,0,0,0,0,0,0,0,0,0,0,0,0,0,0,0],"id":9,"left_children":[1,3,5,7,9,11,13,15,17,19,21,23,25,27,29,31,33,-1,35,37,-1,-1,-1,39,-1,-1,-1,-1,41,43,45,-1,-1,-1,-1,47,49,-1,-1,51,53,-1,-1,55,57,59,61,-1,-1,-1,-1,-1,-1,-1,-1,-1,-1,-1,-1,-1,-1,-1,-1],"loss_changes":[8.0515625E1,1.9421234E1,1.4032139E1,9.347061E0,7.1618514E0,5.341816E0,1.2456275E1,7.679905E0,5.166523E0,3.8671982E0,2.2644596E0,3.6763382E0,3.427208E0,3.2299137E0,9.599609E0,2.4536896E0,8.273244E-1,0E0,5.8343353E0,5.3335285E-1,0E0,0E0,0E0,2.933136E0,0E0,0E0,0E0,0E0,3.2265282E-1,3.3312488E0,5.9457684E0,0E0,0E0,0E0,0E0,5.289444E0,3.2297356E0,0E0,0E0,7.309237E-1,1.630188E0,0E0,0E0,2.2163877E0,1.278249E0,3.279171E0,4.461952E-1,0E0,0E0,0E0,0E0,0E0,0E0,0E0,0E0,0E0,0E0,0E0,0E0,0E0,0E0,0E0,0E0],"parents":[2147483647,0,0,1,1,2,2,3,3,4,4,5,5,6,6,7,7,8,8,9,9,10,10,11,11,12,12,13,13,14,14,15,15,16,16,18,18,19,19,23,23,28,28,29,29,30,30,35,35,36,36,39,39,40,40,43,43,44,44,45,45,46,46],"right_children":[2,4,6,8,10,12,14,16,18,20,22,24,26,28,30,32,34,-1,36,38,-1,-1,-1,40,-1,-1,-1,-1,42,44,46,-1,-1,-1,-1,48,50,-1,-1,52,54,-1,-1,56,58,60,62,-1,-1,-1,-1,-1,-1,-1,-1,-1,-1,-1,-1,-1,-1,-1,-1],"split_conditions":[-9.541962E-1,-2.4329752E-1,-2.2304425E-1,6.9620144E-1,1.6320398E-1,1.4483246E0,1.3605654E-1,-5.315272E-1,-1.2724766E0,7.7575135E-1,-6.1887544E-1,1.2447158E0,5.173885E-1,-1.1921788E0,-1.9293597E0,-7.297347E-1,-8.892948E-1,-2.470336E-2,1.005187E0,6.7322046E-1,-3.0162573E-2,1.5229441E-2,-7.68798E-2,-1.3597386E0,1.6416745E-2,-3.91923E-2,5.9108283E-2,2.500523E-2,-6.0845613E-1,-3.1768906E-1,5.3601403E-2,-1.4928281E-2,8.636194E-2,6.537888E-3,-6.1585404E-2,-4.5652032E-1,-1.1175382E0,4.6287547E-3,9.2811726E-2,7.248077E-1,-1.2824548E0,-3.5773485E-3,-8.264083E-2,-8.4716463E-1,1.7805424E0,4.8670217E-1,-1.994659E1,-1.8238772E-2,1.3134545E-1,5.4957595E-2,-3.4605037E-2,2.8758148E-2,-2.0792417E-2,-2.1951522E-3,-1.0168195E-1,-2.5253803E-2,6.254467E-2,-6.445991E-2,1.1929888E-2,-7.7043385E-3,1.3894337E-1,1.14271315E-2,-2.9563809E-2],"split_indices":[660,583,206,347,51,404,70,253,68,447,178,679,656,349,537,293,556,0,614,377,0,0,0,565,0,0,0,0,460,416,185,0,0,0,0,159,172,0,0,88,252,0,0,35,134,440,530,0,0,0,0,0,0,0,0,0,0,0,0,0,0,0,0],"split_type":[0,0,0,0,0,0,0,0,0,0,0,0,0,0,0,0,0,0,0,0,0,0,0,0,0,0,0,0,0,0,0,0,0,0,0,0,0,0,0,0,0,0,0,0,0,0,0,0,0,0,0,0,0,0,0,0,0,0,0,0,0,0,0],"sum_hessian":[1.9165753E2,7.644772E1,1.152098E2,6.0306953E1,1.614077E1,7.952025E1,3.5689552E1,1.2189407E1,4.8117546E1,4.991266E0,1.1149504E1,7.512799E1,4.3922606E0,1.5388705E1,2.0300848E1,5.8336897E0,6.355718E0,1.19222E0,4.6925327E1,3.2265198E0,1.7647458E0,1.4825387E0,9.6669655E0,7.3507256E1,1.6207352E0,2.6876392E0,1.7046214E0,1.1166145E0,1.4272091E1,1.0447246E1,9.853602E0,1.4800328E0,4.353657E0,1.0845963E0,5.2711215E0,4.0536926E1,6.3884006E0,1.3750215E0,1.8514985E0,2.1065006E0,7.140076E1,1.0108006E0,1.3261291E1,3.1670136E0,7.2802315E0,7.147694E0,2.7059083E0,1.2989848E0,3.923794E1,2.8914683E0,3.4969323E0,1.0024695E0,1.104031E0,1.9126365E0,6.948811E1,1.3962755E0,1.770738E0,6.267539E0,1.0126929E0,1.1860029E0,5.961691E0,1.0000645E0,1.7058438E0],"tree_param":{"num_deleted":"0","num_feature":"768","num_nodes":"63","size_leaf_vector":"1"}},{"base_weights":[-1.1868348E-1,-6.741569E-1,5.603787E-1,-8.2768226E-1,4.740654E-2,9.725059E-1,6.924167E-2,-1.800159E-1,-9.3368936E-1,-6.317926E-2,5.888881E-1,-2.2659025E-1,1.0785017E0,5.134987E-1,-3.0832726E-1,-5.50811E-1,5.2936494E-1,1.2243311E-2,-9.572304E-1,9.5822436E-1,-2.1145497E-1,9.690615E-3,-3.415666E-2,-2.1863842E-2,1.1570061E0,8.4773767E-1,-1.7327507E-1,-5.8448225E-1,1.984609E-1,1.2706797E-2,-6.888619E-2,-1.7485948E-2,8.4541544E-2,-9.8143893E-1,6.8540955E-3,1.1651056E0,-1.3052389E-2,2.649625E-2,-4.352821E-2,1.2545809E0,-4.1538518E-2,1.0252975E0,-1.5394213E-2,4.2175442E-2,-5.4926324E-1,-7.329696E-1,1.541353E-1,6.091463E-1,-4.3319818E-2,-1.0043471E-1,-1.2201467E-2,6.882845E-3,1.2781511E-1,1.4302038E-3,1.3479733E-1,-3.3115756E-2,2.8948883E-2,-1.0397419E-2,1.17509924E-1,-5.8633346E-2,-4.0743835E-3,2.5035175E-3,-8.003626E-2,-2.5492704E-2,4.588281E-2,-2.3557896E-2,8.447554E-2],"categories":[],"categories_nodes":[],"categories_segments":[],"categories_sizes":[],"default_left":[0,0,0,0,0,0,0,0,0,0,0,0,0,0,0,0,0,0,0,0,0,0,0,0,0,0,0,0,0,0,0,0,0,0,0,0,0,0,0,0,0,0,0,0,0,0,0,0,0,0,0,0,0,0,0,0,0,0,0,0,0,0,0,0,0,0,0],"id":10,"left_children":[1,3,5,7,9,11,13,15,17,-1,19,21,23,25,27,29,31,-1,33,35,37,-1,-1,-1,39,41,43,45,47,-1,-1,-1,-1,49,-1,51,-1,-1,-1,53,55,57,-1,-1,59,61,63,65,-1,-1,-1,-1,-1,-1,-1,-1,-1,-1,-1,-1,-1,-1,-1,-1,-1,-1,-1],"loss_changes":[7.436084E1,1.215493E1,1.7714066E1,5.2895813E0,1.0564826E1,7.3361664E0,8.519698E0,6.3904285E0,2.4638596E0,0E0,5.670838E0,4.645041E-1,5.854103E0,6.023844E0,4.502788E0,1.819448E0,2.7393444E0,0E0,2.1851578E0,3.3924465E0,1.544012E0,0E0,0E0,0E0,5.3232613E0,3.6968088E0,3.7746649E0,2.6937451E0,4.852362E0,0E0,0E0,0E0,0E0,8.256836E-1,0E0,8.395014E-1,0E0,0E0,0E0,4.559086E0,1.2557733E0,3.070448E0,0E0,0E0,5.6584597E-2,9.7016525E-1,1.5047032E0,3.0511813E0,0E0,0E0,0E0,0E0,0E0,0E0,0E0,0E0,0E0,0E0,0E0,0E0,0E0,0E0,0E0,0E0,0E0,0E0,0E0],"parents":[2147483647,0,0,1,1,2,2,3,3,4,4,5,5,6,6,7,7,8,8,10,10,11,11,12,12,13,13,14,14,15,15,16,16,18,18,19,19,20,20,24,24,25,25,26,26,27,27,28,28,33,33,35,35,39,39,40,40,41,41,44,44,45,45,46,46,47,47],"right_children":[2,4,6,8,10,12,14,16,18,-1,20,22,24,26,28,30,32,-1,34,36,38,-1,-1,-1,40,42,44,46,48,-1,-1,-1,-1,50,-1,52,-1,-1,-1,54,56,58,-1,-1,60,62,64,66,-1,-1,-1,-1,-1,-1,-1,-1,-1,-1,-1,-1,-1,-1,-1,-1,-1,-1,-1],"split_conditions":[8.876637E-1,5.2731127E-1,-9.4033265E-1,-2.1819082E-1,4.468632E-1,-1.9095694E-1,4.1622433E-1,8.675167E-1,-6.797891E-1,-6.317926E-2,1.459482E-1,-1.0467459E0,-1.7911456E0,8.880965E-1,1.0673264E0,-1.3642535E0,-3.500965E-1,1.2243311E-2,1.6019626E0,1.5037463E0,-4.8986122E-1,9.690615E-3,-3.415666E-2,-2.1863842E-2,8.251786E-1,6.079917E-1,6.1298656E-1,6.6773665E-1,2.1500945E-1,1.2706797E-2,-6.888619E-2,-1.7485948E-2,8.4541544E-2,1.345994E0,6.8540955E-3,-2.7163372E0,-1.3052389E-2,2.649625E-2,-4.352821E-2,-8.6324E-1,4.566841E-2,2.6853594E-1,-1.5394213E-2,4.2175442E-2,2.0249143E-1,-2.4891646E0,-6.8308896E-1,-3.026725E-1,-4.3319818E-2,-1.0043471E-1,-1.2201467E-2,6.882845E-3,1.2781511E-1,1.4302038E-3,1.3479733E-1,-3.3115756E-2,2.8948883E-2,-1.0397419E-2,1.17509924E-1,-5.8633346E-2,-4.0743835E-3,2.5035175E-3,-8.003626E-2,-2.5492704E-2,4.588281E-2,-2.3557896E-2,8.447554E-2],"split_indices":[751,113,583,166,9,764,350,97,313,0,178,258,19,107,567,28,328,0,335,552,252,0,0,0,179,528,281,270,434,0,0,0,0,391,0,100,0,0,0,148,46,347,0,0,140,724,317,259,0,0,0,0,0,0,0,0,0,0,0,0,0,0,0,0,0,0,0],"split_type":[0,0,0,0,0,0,0,0,0,0,0,0,0,0,0,0,0,0,0,0,0,0,0,0,0,0,0,0,0,0,0,0,0,0,0,0,0,0,0,0,0,0,0,0,0,0,0,0,0,0,0,0,0,0,0,0,0,0,0,0,0,0,0,0,0,0,0],"sum_hessian":[1.8713078E2,1.0295204E2,8.417874E1,8.428383E1,1.8668213E1,4.3106377E1,4.107237E1,1.375237E1,7.0531456E1,7.9111094E0,1.0757103E1,3.0389578E0,4.0067417E1,1.804275E1,2.3029617E1,9.765555E0,3.9868152E0,1.0798943E0,6.945156E1,6.685565E0,4.071538E0,1.0029345E0,2.0360234E0,1.7772044E0,3.8290215E1,1.1348016E1,6.6947346E0,1.4410583E1,8.619035E0,1.7195818E0,8.045973E0,1.9269216E0,2.0598938E0,6.806138E1,1.390181E0,5.323366E0,1.362199E0,1.0077105E0,3.0638275E0,3.519147E1,3.0987418E0,9.539188E0,1.8088267E0,2.35661E0,4.3381248E0,1.2030313E1,2.3802698E0,5.331112E0,3.2879229E0,6.547305E1,2.588333E0,1.2495854E0,4.073781E0,2.8680906E0,3.2323383E1,1.651693E0,1.4470488E0,1.2963482E0,8.242841E0,3.3302512E0,1.0078734E0,1.2388556E0,1.0791457E1,1.3647255E0,1.0155442E0,1.1627959E0,4.168316E0],"tree_param":{"num_deleted":"0","num_feature":"768","num_nodes":"67","size_leaf_vector":"1"}},{"base_weights":[-1.5348165E-1,6.299102E-1,-5.2646375E-1,8.292594E-1,-3.3160478E-1,1.8982157E-1,-6.8844163E-1,9.610049E-1,-2.509585E-1,2.9809362E-1,-5.9043217E-2,-4.1674173E-1,5.352078E-1,-8.238146E-1,-7.7354975E-2,1.4679995E-1,1.1032679E0,2.6661843E-2,-4.834256E-2,4.553993E-2,-9.986392E-3,-6.584367E-2,2.8976599E-2,-1.8408506E-1,8.555434E-1,2.4963789E-1,-8.721598E-1,3.5037833E-1,-5.6423634E-1,5.857842E-1,-4.11349E-1,7.177182E-2,1.2166286E0,2.637881E-2,-4.5695286E-2,-1.983092E-2,1.0085202E0,5.6134183E-2,-2.4221644E-2,1.6040231E-1,-9.1262895E-1,6.925243E-1,-3.1142077E-1,-6.73302E-2,1.2269581E-2,-2.9261385E-3,6.956901E-2,1.2950707E-3,-4.7758836E-2,5.447467E-2,-4.307754E-2,-1.2721251E-2,1.2925063E-1,-3.1058774E-3,1.14549994E-1,-2.3234569E-2,4.4115942E-2,-9.351238E-2,1.0651855E-2,-1.2995294E-2,9.3792394E-2,1.1699543E-2,-4.402067E-2],"categories":[],"categories_nodes":[],"categories_segments":[],"categories_sizes":[],"default_left":[0,0,0,0,0,0,0,0,0,0,0,0,0,0,0,0,0,0,0,0,0,0,0,0,0,0,0,0,0,0,0,0,0,0,0,0,0,0,0,0,0,0,0,0,0,0,0,0,0,0,0,0,0,0,0,0,0,0,0,0,0,0,0],"id":11,"left_children":[1,3,5,7,9,11,13,15,17,19,-1,21,23,25,27,29,31,-1,-1,-1,-1,-1,-1,33,35,37,39,41,43,45,47,49,51,-1,-1,-1,53,-1,-1,55,57,59,61,-1,-1,-1,-1,-1,-1,-1,-1,-1,-1,-1,-1,-1,-1,-1,-1,-1,-1,-1,-1],"loss_changes":[5.497347E1,1.3092203E1,1.5311348E1,8.614849E0,3.1730814E0,6.8176994E0,8.294441E0,4.6848907E0,1.8023949E0,6.9194704E-1,0E0,3.1203792E0,5.2880964E0,5.485138E0,6.069952E0,4.3467035E0,4.1954956E0,0E0,0E0,0E0,0E0,0E0,0E0,1.8410711E0,3.321416E0,1.8355536E0,4.1659393E0,4.7179155E0,1.4114909E0,7.264106E-1,2.7214396E-1,3.368622E0,4.4295197E0,0E0,0E0,0E0,2.0854797E0,0E0,0E0,1.323182E0,2.3281174E0,3.0610666E0,7.5004536E-1,0E0,0E0,0E0,0E0,0E0,0E0,0E0,0E0,0E0,0E0,0E0,0E0,0E0,0E0,0E0,0E0,0E0,0E0,0E0,0E0],"parents":[2147483647,0,0,1,1,2,2,3,3,4,4,5,5,6,6,7,7,8,8,9,9,11,11,12,12,13,13,14,14,15,15,16,16,23,23,24,24,25,25,26,26,27,27,28,28,29,29,30,30,31,31,32,32,36,36,39,39,40,40,41,41,42,42],"right_children":[2,4,6,8,10,12,14,16,18,20,-1,22,24,26,28,30,32,-1,-1,-1,-1,-1,-1,34,36,38,40,42,44,46,48,50,52,-1,-1,-1,54,-1,-1,56,58,60,62,-1,-1,-1,-1,-1,-1,-1,-1,-1,-1,-1,-1,-1,-1,-1,-1,-1,-1,-1,-1],"split_conditions":[-1.5148549E0,-2.8741392E-1,-1.1146116E0,4.7201928E-1,-6.762051E-1,5.321193E-3,9.936379E-1,-1.1884941E0,-1.1048989E0,-1.2378774E0,-5.9043217E-2,4.5120376E-1,1.6396745E-1,-9.496939E-1,7.794277E-1,1.3128612E0,-4.0683356E-1,2.6661843E-2,-4.834256E-2,4.553993E-2,-9.986392E-3,-6.584367E-2,2.8976599E-2,-3.4125906E-1,1.03368565E-1,-1.1375555E0,-1.8693975E0,8.35418E-1,1.1792852E0,-6.225999E-1,-9.227996E-1,-4.030823E-2,-3.3134276E-1,2.637881E-2,-4.5695286E-2,-1.983092E-2,-1.4198353E0,5.6134183E-2,-2.4221644E-2,9.2391185E-2,1.1403456E0,8.197358E-2,2.194658E-1,-6.73302E-2,1.2269581E-2,-2.9261385E-3,6.956901E-2,1.2950707E-3,-4.7758836E-2,5.447467E-2,-4.307754E-2,-1.2721251E-2,1.2925063E-1,-3.1058774E-3,1.14549994E-1,-2.3234569E-2,4.4115942E-2,-9.351238E-2,1.0651855E-2,-1.2995294E-2,9.3792394E-2,1.1699543E-2,-4.402067E-2],"split_indices":[348,730,509,178,671,315,751,548,426,340,0,218,332,178,362,84,601,0,0,0,0,0,0,345,9,714,554,666,482,298,410,570,204,0,0,0,340,0,0,352,588,332,436,0,0,0,0,0,0,0,0,0,0,0,0,0,0,0,0,0,0,0,0],"split_type":[0,0,0,0,0,0,0,0,0,0,0,0,0,0,0,0,0,0,0,0,0,0,0,0,0,0,0,0,0,0,0,0,0,0,0,0,0,0,0,0,0,0,0,0,0,0,0,0,0,0,0,0,0,0,0,0,0,0,0,0,0,0,0],"sum_hessian":[1.7746736E2,5.613021E1,1.2133715E2,4.70609E1,9.06931E0,2.221967E1,9.911748E1,4.2437E1,4.623901E0,2.4209254E0,6.6483846E0,7.686952E0,1.4532718E1,7.971729E1,1.940019E1,7.8230863E0,3.4613914E1,1.2054602E0,3.4184406E0,1.2178309E0,1.2030946E0,5.981048E0,1.7059041E0,5.133179E0,9.399538E0,2.5383244E0,7.717896E1,1.1073632E1,8.326558E0,4.2404275E0,3.5826588E0,4.2359138E0,3.0378E1,2.0063765E0,3.126803E0,1.0036626E0,8.395876E0,1.1213231E0,1.4170012E0,2.3519387E0,7.482703E1,7.1466994E0,3.926933E0,7.2712913E0,1.055267E0,1.1990736E0,3.0413542E0,1.0269442E0,2.5557146E0,1.9658692E0,2.2700446E0,1.4427772E0,2.8935223E1,1.4276128E0,6.968263E0,1.3398272E0,1.0121117E0,7.361442E1,1.2126092E0,2.1828647E0,4.963835E0,1.0134319E0,2.9135013E0],"tree_param":{"num_deleted":"0","num_feature":"768","num_nodes":"63","size_leaf_vector":"1"}},{"base_weights":[-1.3727897E-1,-6.648368E-1,4.6793902E-1,6.5689996E-2,-7.959829E-1,-2.2418575E-1,6.7764E-1,6.3822806E-1,-4.8154047E-1,-8.360853E-1,2.5681233E-2,-6.5453805E-2,1.7407446E-1,8.539338E-1,-8.6299375E-2,-2.2854151E-2,8.596997E-1,-6.345543E-2,2.1828312E-2,2.3025779E-2,-8.766235E-1,-3.4396872E-1,5.799278E-1,9.7893465E-1,-3.920817E-2,4.9464914E-1,-4.0291885E-1,-1.0446232E-2,1.0421627E-1,-9.7363955E-1,-2.3870109E-1,-5.281214E-2,2.203787E-2,8.874894E-1,-2.9082289E-2,1.0597105E0,-1.3790911E-1,4.0680823E-1,-4.3112654E-2,6.8748474E-2,-1.0255496E-2,3.5664957E-2,-6.1994755E-1,-9.997449E-2,-1.3985336E-2,-6.112727E-2,4.2334165E-2,-5.0068744E-3,1.0302924E-1,-1.8671472E-2,1.1245234E-1,2.3572195E-2,-3.9732505E-2,-8.097802E-3,5.361847E-2,5.0232057E-3,-7.0360065E-2],"categories":[],"categories_nodes":[],"categories_segments":[],"categories_sizes":[],"default_left":[0,0,0,0,0,0,0,0,0,0,0,0,0,0,0,0,0,0,0,0,0,0,0,0,0,0,0,0,0,0,0,0,0,0,0,0,0,0,0,0,0,0,0,0,0,0,0,0,0,0,0,0,0,0,0,0,0],"id":12,"left_children":[1,3,5,7,9,11,13,15,17,19,-1,-1,21,23,25,-1,27,-1,-1,-1,29,31,33,35,37,39,41,-1,-1,43,45,-1,-1,47,-1,49,51,53,-1,-1,-1,-1,55,-1,-1,-1,-1,-1,-1,-1,-1,-1,-1,-1,-1,-1,-1],"loss_changes":[5.799696E1,9.507793E0,1.3134384E1,7.586001E0,4.5442047E0,4.6116104E0,9.348608E0,3.2064714E0,2.05486E0,4.4831047E0,0E0,0E0,4.4029474E0,6.291588E0,4.1314616E0,0E0,2.3524914E0,0E0,0E0,0E0,3.6937103E0,1.6475807E0,4.2213693E0,5.0718307E0,2.8898125E0,1.3033717E0,3.3782406E0,0E0,0E0,7.478905E-1,5.482396E0,0E0,0E0,1.5059276E0,0E0,4.721504E0,1.2116926E0,7.193378E-1,0E0,0E0,0E0,0E0,8.802409E-1,0E0,0E0,0E0,0E0,0E0,0E0,0E0,0E0,0E0,0E0,0E0,0E0,0E0,0E0],"parents":[2147483647,0,0,1,1,2,2,3,3,4,4,5,5,6,6,7,7,8,8,9,9,12,12,13,13,14,14,16,16,20,20,21,21,22,22,23,23,24,24,25,25,26,26,29,29,30,30,33,33,35,35,36,36,37,37,42,42],"right_children":[2,4,6,8,10,12,14,16,18,20,-1,-1,22,24,26,-1,28,-1,-1,-1,30,32,34,36,38,40,42,-1,-1,44,46,-1,-1,48,-1,50,52,54,-1,-1,-1,-1,56,-1,-1,-1,-1,-1,-1,-1,-1,-1,-1,-1,-1,-1,-1],"split_conditions":[8.876637E-1,-9.8852223E-1,-3.152119E-2,-3.935619E-1,5.508121E-1,9.5570374E-1,-5.472384E-1,1.9047248E-1,5.2075636E-1,-1.4225111E0,2.5681233E-2,-6.5453805E-2,-1.5408076E-1,6.815084E-2,-1.0653226E0,-2.2854151E-2,-8.181297E-1,-6.345543E-2,2.1828312E-2,2.3025779E-2,1.45303E0,1.0085104E0,5.1506495E-1,3.1935706E0,-3.0185434E-1,-7.227833E-1,-3.4030908E-1,-1.0446232E-2,1.0421627E-1,1.6599119E0,8.177929E-1,-5.281214E-2,2.203787E-2,-4.744739E-1,-2.9082289E-2,-1.3510286E0,-1.3294621E-1,-7.4353135E-1,-4.3112654E-2,6.8748474E-2,-1.0255496E-2,3.5664957E-2,8.941069E-5,-9.997449E-2,-1.3985336E-2,-6.112727E-2,4.2334165E-2,-5.0068744E-3,1.0302924E-1,-1.8671472E-2,1.1245234E-1,2.3572195E-2,-3.9732505E-2,-8.097802E-3,5.361847E-2,5.0232057E-3,-7.0360065E-2],"split_indices":[751,378,679,575,92,440,583,382,278,730,0,0,576,240,351,0,217,0,0,0,84,88,449,707,364,671,372,0,0,602,382,0,0,40,0,222,123,733,0,0,0,0,462,0,0,0,0,0,0,0,0,0,0,0,0,0,0],"split_type":[0,0,0,0,0,0,0,0,0,0,0,0,0,0,0,0,0,0,0,0,0,0,0,0,0,0,0,0,0,0,0,0,0,0,0,0,0,0,0,0,0,0,0,0,0,0,0,0,0,0,0,0,0,0,0,0,0],"sum_hessian":[1.717731E2,9.151155E1,8.026155E1,1.4307819E1,7.7203735E1,1.858286E1,6.1678688E1,6.585903E0,7.721916E0,7.536229E1,1.8414415E0,7.385146E0,1.1197715E1,4.9635353E1,1.2043334E1,1.3078369E0,5.278066E0,6.71913E0,1.0027864E0,1.9030508E0,7.345924E1,5.2538924E0,5.943822E0,4.3120136E1,6.5152197E0,3.2565842E0,8.78675E0,1.1800325E0,4.098034E0,6.147822E1,1.198102E1,4.2032733E0,1.0506191E0,4.321345E0,1.622477E0,4.045034E1,2.6697953E0,2.9584463E0,3.5567734E0,1.8903382E0,1.3662461E0,1.2378418E0,7.548908E0,5.8646812E1,2.8314075E0,7.9119315E0,4.069089E0,1.0003808E0,3.3209643E0,1.5345751E0,3.8915764E1,1.2811959E0,1.3885994E0,1.0122864E0,1.9461597E0,1.0593792E0,6.489529E0],"tree_param":{"num_deleted":"0","num_feature":"768","num_nodes":"57","size_leaf_vector":"1"}},{"base_weights":[-1.4648715E-1,3.319089E-1,-7.3396367E-1,6.788283E-1,-1.1948361E-1,-8.3628607E-1,1.8438E-1,-8.501423E-2,8.978173E-1,6.529285E-1,-3.156731E-1,1.89136E-1,-8.8291836E-1,-4.0604513E-2,6.1702645E-1,3.8140061E-1,-4.015104E-1,1.4447835E-1,1.0556756E0,-2.1033807E-2,9.001518E-2,3.6467007E-1,-4.8990655E-1,-2.1290893E-2,4.470085E-2,5.0219774E-2,-9.333078E-1,8.499874E-2,-7.473573E-3,-2.3877908E-2,6.178022E-1,-5.557086E-1,2.2579735E-2,-3.0830634E-1,5.549012E-1,1.2052907E0,-7.248672E-2,-2.005791E-1,6.862634E-2,-5.8897984E-1,2.9856524E-1,4.2108487E-2,-3.2291394E-2,1.1060371E-2,-9.5998645E-1,7.1635656E-2,-1.0541897E-3,4.7347588E-3,-6.368729E-2,2.4427338E-2,-5.4690916E-2,6.3466616E-2,-9.948619E-4,3.344873E-3,1.2636405E-1,3.5508525E-2,-3.9148636E-2,-3.2231305E-2,1.0592468E-2,-7.495842E-2,1.8314494E-2,4.461127E-2,-8.932694E-3,-6.9311946E-3,-9.844814E-2],"categories":[],"categories_nodes":[],"categories_segments":[],"categories_sizes":[],"default_left":[0,0,0,0,0,0,0,0,0,0,0,0,0,0,0,0,0,0,0,0,0,0,0,0,0,0,0,0,0,0,0,0,0,0,0,0,0,0,0,0,0,0,0,0,0,0,0,0,0,0,0,0,0,0,0,0,0,0,0,0,0,0,0,0,0],"id":13,"left_children":[1,3,5,7,9,11,13,15,17,19,21,23,25,-1,27,29,31,33,35,-1,-1,37,39,-1,-1,41,43,-1,-1,-1,45,47,-1,49,51,53,55,57,-1,59,61,-1,-1,-1,63,-1,-1,-1,-1,-1,-1,-1,-1,-1,-1,-1,-1,-1,-1,-1,-1,-1,-1,-1,-1],"loss_changes":[4.8958275E1,1.5606083E1,8.081425E0,9.687687E0,8.067145E0,4.225334E0,4.2914963E0,3.269812E0,4.4306984E0,3.3017073E0,5.6821556E0,1.2225354E0,3.4646454E0,0E0,1.7437959E0,2.118937E0,1.840544E0,3.3378243E0,6.397152E0,0E0,0E0,2.7065768E0,3.5583487E0,0E0,0E0,1.823521E0,2.353279E0,0E0,0E0,0E0,5.465033E-1,7.142334E-1,0E0,1.9291708E0,4.2773104E-1,1.9398575E0,1.9022952E0,4.6529803E-1,0E0,4.673212E0,6.0825527E-1,0E0,0E0,0E0,1.0621223E0,0E0,0E0,0E0,0E0,0E0,0E0,0E0,0E0,0E0,0E0,0E0,0E0,0E0,0E0,0E0,0E0,0E0,0E0,0E0,0E0],"parents":[2147483647,0,0,1,1,2,2,3,3,4,4,5,5,6,6,7,7,8,8,9,9,10,10,11,11,12,12,14,14,15,15,16,16,17,17,18,18,21,21,22,22,25,25,26,26,30,30,31,31,33,33,34,34,35,35,36,36,37,37,39,39,40,40,44,44],"right_children":[2,4,6,8,10,12,14,16,18,20,22,24,26,-1,28,30,32,34,36,-1,-1,38,40,-1,-1,42,44,-1,-1,-1,46,48,-1,50,52,54,56,58,-1,60,62,-1,-1,-1,64,-1,-1,-1,-1,-1,-1,-1,-1,-1,-1,-1,-1,-1,-1,-1,-1,-1,-1,-1,-1],"split_conditions":[-1.8791194E0,-6.882997E-2,9.755237E-2,-5.408302E-2,2.4953084E-1,-1.855104E0,4.1360986E-1,-1.4342954E0,-1.1367415E-1,-1.7242861E-1,-5.196149E-1,2.4675871E-1,-8.7131846E-1,-4.0604513E-2,2.2329539E-1,5.079641E-1,8.1553835E-1,9.223964E-1,6.0701346E-1,-2.1033807E-2,9.001518E-2,1.651508E-1,1.4483246E0,-2.1290893E-2,4.470085E-2,-7.844307E-1,-1.1183275E0,8.499874E-2,-7.473573E-3,-2.3877908E-2,-2.9013649E-2,7.776559E-2,2.2579735E-2,-1.7229876E-1,-1.8143282E0,5.976406E-1,-2.9041368E-1,-1.3653338E-1,6.862634E-2,1.5514886E0,1.9924732E-2,4.2108487E-2,-3.2291394E-2,1.1060371E-2,-1.1576965E0,7.1635656E-2,-1.0541897E-3,4.7347588E-3,-6.368729E-2,2.4427338E-2,-5.4690916E-2,6.3466616E-2,-9.948619E-4,3.344873E-3,1.2636405E-1,3.5508525E-2,-3.9148636E-2,-3.2231305E-2,1.0592468E-2,-7.495842E-2,1.8314494E-2,4.461127E-2,-8.932694E-3,-6.9311946E-3,-9.844814E-2],"split_indices":[57,555,395,559,192,59,751,413,432,194,661,36,253,0,699,390,643,524,428,0,0,206,404,0,0,500,22,0,0,0,659,506,0,449,250,61,290,110,0,136,612,0,0,0,200,0,0,0,0,0,0,0,0,0,0,0,0,0,0,0,0,0,0,0,0],"split_type":[0,0,0,0,0,0,0,0,0,0,0,0,0,0,0,0,0,0,0,0,0,0,0,0,0,0,0,0,0,0,0,0,0,0,0,0,0,0,0,0,0,0,0,0,0,0,0,0,0,0,0,0,0,0,0,0,0,0,0,0,0,0,0,0,0],"sum_hessian":[1.6486598E2,9.206798E1,7.2798E1,5.063386E1,4.1434113E1,6.590194E1,6.8960605E0,1.1963529E1,3.8670334E1,6.034724E0,3.5399387E1,2.2019792E0,6.369996E1,3.0462801E0,3.8497803E0,4.4218163E0,7.5417123E0,8.358361E0,3.0311974E1,1.50956E0,4.525164E0,6.1031084E0,2.929628E1,1.2011318E0,1.0008475E0,3.2644298E0,6.0435528E1,2.0243962E0,1.8253841E0,1.2064667E0,3.2153497E0,6.511749E0,1.0299636E0,4.565582E0,3.7927794E0,2.6460934E1,3.8510392E0,2.8954291E0,3.2076793E0,2.7149889E1,2.1463907E0,1.314939E0,1.9494908E0,1.1140683E0,5.932146E1,2.1740086E0,1.0413411E0,1.0195612E0,5.4921875E0,1.3410411E0,3.224541E0,2.781923E0,1.0108564E0,1.6281874E0,2.4832747E1,1.40382E0,2.4472191E0,1.8877689E0,1.0076603E0,2.2595846E1,4.5540423E0,1.0112538E0,1.1351367E0,2.100279E0,5.7221184E1],"tree_param":{"num_deleted":"0","num_feature":"768","num_nodes":"65","size_leaf_vector":"1"}},{"base_weights":[-1.0026046E-1,3.624746E-1,-6.008386E-1,-3.925645E-1,5.314651E-1,1.7781097E-1,-7.743474E-1,-6.63803E-1,2.1884161E-1,-2.0571542E-1,7.013776E-1,-3.454006E-1,6.242971E-1,2.5063654E-2,-8.5723627E-1,-3.5599743E-3,-6.984697E-2,5.1136863E-1,-2.344812E-2,-4.7947305E-1,3.7782663E-1,-2.895686E-1,8.291732E-1,-5.7046432E-2,2.9855657E-2,-1.9708863E-2,9.087546E-1,-3.7923936E-2,3.609491E-1,6.1238413E-3,-9.114131E-1,2.3946993E-3,5.7074357E-2,-6.621223E-2,2.4528228E-2,6.587886E-2,-2.3751149E-2,-5.4814823E-2,2.233348E-1,-3.1184519E-2,9.174721E-1,1.00094415E-1,2.2896233E-3,5.7019394E-2,-1.9925091E-2,-3.4730062E-2,4.2066947E-2,7.098085E-3,-9.4271034E-1,3.823557E-2,-1.1639926E-2,9.729261E-2,-2.2951068E-2,-9.587899E-4,-9.711478E-2],"categories":[],"categories_nodes":[],"categories_segments":[],"categories_sizes":[],"default_left":[0,0,0,0,0,0,0,0,0,0,0,0,0,0,0,0,0,0,0,0,0,0,0,0,0,0,0,0,0,0,0,0,0,0,0,0,0,0,0,0,0,0,0,0,0,0,0,0,0,0,0,0,0,0,0],"id":14,"left_children":[1,3,5,7,9,11,13,15,17,19,21,23,25,27,29,-1,-1,31,-1,33,35,37,39,-1,-1,-1,41,-1,43,45,47,-1,-1,-1,-1,-1,-1,-1,49,-1,51,-1,-1,-1,-1,-1,-1,-1,53,-1,-1,-1,-1,-1,-1],"loss_changes":[3.8699917E1,1.2206892E1,1.1480148E1,3.856848E0,9.942373E0,5.428427E0,4.4976807E0,1.8743849E-1,1.8674421E0,3.7262578E0,8.920538E0,2.5608125E0,3.6593127E0,2.1894207E0,2.8424606E0,0E0,0E0,1.4533603E-1,0E0,2.6945946E0,2.240528E0,2.0271614E0,7.001217E0,0E0,0E0,0E0,6.7571354E-1,0E0,1.5779216E0,1.9787076E0,2.076458E0,0E0,0E0,0E0,0E0,0E0,0E0,0E0,6.076553E-1,0E0,4.4613686E0,0E0,0E0,0E0,0E0,0E0,0E0,0E0,1.4196587E0,0E0,0E0,0E0,0E0,0E0,0E0],"parents":[2147483647,0,0,1,1,2,2,3,3,4,4,5,5,6,6,7,7,8,8,9,9,10,10,11,11,12,12,13,13,14,14,17,17,19,19,20,20,21,21,22,22,26,26,28,28,29,29,30,30,38,38,40,40,48,48],"right_children":[2,4,6,8,10,12,14,16,18,20,22,24,26,28,30,-1,-1,32,-1,34,36,38,40,-1,-1,-1,42,-1,44,46,48,-1,-1,-1,-1,-1,-1,-1,50,-1,52,-1,-1,-1,-1,-1,-1,-1,54,-1,-1,-1,-1,-1,-1],"split_conditions":[-1.1341964E0,1.3319063E0,-2.9685062E-1,8.6129296E-1,-3.629339E-2,-1.4486817E-1,-1.1509044E0,-6.7067605E-1,-6.4605935E-3,-5.531119E-2,-1.0803274E0,1.0558081E0,6.237516E-1,-1.4114305E0,-8.808573E-1,-3.5599743E-3,-6.984697E-2,-7.822595E-1,-2.344812E-2,1.1374744E0,-5.2952014E-2,1.2994479E0,-7.736673E-1,-5.7046432E-2,2.9855657E-2,-1.9708863E-2,4.8320785E-1,-3.7923936E-2,1.459482E-1,-8.0805504E-1,-9.720982E-1,2.3946993E-3,5.7074357E-2,-6.621223E-2,2.4528228E-2,6.587886E-2,-2.3751149E-2,-5.4814823E-2,-7.9647726E-1,-3.1184519E-2,1.4995335E0,1.00094415E-1,2.2896233E-3,5.7019394E-2,-1.9925091E-2,-3.4730062E-2,4.2066947E-2,7.098085E-3,-1.0268034E0,3.823557E-2,-1.1639926E-2,9.729261E-2,-2.2951068E-2,-9.587899E-4,-9.711478E-2],"split_indices":[348,392,166,44,679,547,509,288,2,217,222,540,347,433,444,0,0,298,0,445,227,427,183,0,0,0,364,0,178,695,95,0,0,0,0,0,0,0,468,0,350,0,0,0,0,0,0,0,388,0,0,0,0,0,0],"split_type":[0,0,0,0,0,0,0,0,0,0,0,0,0,0,0,0,0,0,0,0,0,0,0,0,0,0,0,0,0,0,0,0,0,0,0,0,0,0,0,0,0,0,0,0,0,0,0,0,0,0,0,0,0,0,0],"sum_hessian":[1.5737169E2,8.249378E1,7.487791E1,1.3877041E1,6.861674E1,1.3622172E1,6.1255733E1,9.315781E0,4.5612597E0,1.2655621E1,5.5961117E1,6.793394E0,6.8287783E0,6.0824437E0,5.5173286E1,1.0172127E0,8.298569E0,2.38318E0,2.17808E0,9.221316E0,3.4343042E0,5.669512E0,5.0291607E1,5.456853E0,1.3365414E0,2.1516082E0,4.67717E0,2.4672565E0,3.6151872E0,3.5196157E0,5.165367E1,1.0206919E0,1.362488E0,7.7103024E0,1.5110139E0,2.115369E0,1.3189352E0,3.540827E0,2.1286848E0,2.7030976E0,4.758851E1,3.6479614E0,1.0292085E0,2.567121E0,1.0480661E0,2.3376775E0,1.1819382E0,1.3990483E0,5.0254623E1,1.0227039E0,1.1059808E0,4.6117588E1,1.4709198E0,1.6839708E0,4.8570652E1],"tree_param":{"num_deleted":"0","num_feature":"768","num_nodes":"55","size_leaf_vector":"1"}},{"base_weights":[-1.2117641E-1,2.815945E-1,-6.579773E-1,6.035856E-1,-1.5659979E-1,-2.7348982E-2,-8.317458E-1,-5.2996524E-2,7.9947966E-1,1.8638922E-1,-6.068673E-1,-3.8583988E-1,5.225889E-1,1.3567561E-2,-8.77072E-1,-4.8411095E-1,4.3843257E-1,-1.9246137E-1,8.774271E-1,4.8109058E-1,-4.6497688E-1,1.8859722E-2,-7.221531E-1,-6.2617786E-2,1.4669488E-1,-1.791186E-2,7.7216846E-1,-9.098967E-1,1.3144823E-2,-6.3922025E-2,1.8701656E-2,-1.4515774E-2,6.1898638E-2,5.0846185E-3,-2.7275E-2,9.5499283E-1,-1.4697932E-1,-1.3744524E-1,7.4925345E-1,-5.860556E-2,1.3232273E-2,5.2240337E-3,-7.877379E-2,4.5899637E-2,-2.8678535E-2,6.616411E-3,8.31353E-2,1.5007501E-4,-9.4263995E-1,-5.57627E-3,1.0372219E-1,1.7960733E-2,-3.460731E-2,4.197125E-2,-4.675009E-2,9.2196636E-2,-1.4208959E-2,-9.594019E-2,-2.162449E-3],"categories":[],"categories_nodes":[],"categories_segments":[],"categories_sizes":[],"default_left":[0,0,0,0,0,0,0,0,0,0,0,0,0,0,0,0,0,0,0,0,0,0,0,0,0,0,0,0,0,0,0,0,0,0,0,0,0,0,0,0,0,0,0,0,0,0,0,0,0,0,0,0,0,0,0,0,0,0,0],"id":15,"left_children":[1,3,5,7,9,11,13,15,17,19,21,23,25,-1,27,29,31,33,35,37,39,-1,41,-1,43,-1,45,47,-1,-1,-1,-1,-1,-1,-1,49,51,53,55,-1,-1,-1,-1,-1,-1,-1,-1,-1,57,-1,-1,-1,-1,-1,-1,-1,-1,-1,-1],"loss_changes":[3.5231365E1,1.3756905E1,7.5039387E0,7.324812E0,7.33758E0,4.9879684E0,2.9772415E0,4.7470636E0,4.1617146E0,6.6305885E0,2.5274415E0,2.3915122E0,2.4586194E0,0E0,2.3382034E0,1.809794E0,1.5823636E0,2.1050808E-1,3.9340706E0,4.2017837E0,1.218512E0,0E0,1.1515055E0,0E0,1.8421178E0,0E0,7.530165E-2,1.5451546E0,0E0,0E0,0E0,0E0,0E0,0E0,0E0,3.4875603E0,7.787045E-1,2.994205E0,3.1613302E0,0E0,0E0,0E0,0E0,0E0,0E0,0E0,0E0,0E0,6.644745E-1,0E0,0E0,0E0,0E0,0E0,0E0,0E0,0E0,0E0,0E0],"parents":[2147483647,0,0,1,1,2,2,3,3,4,4,5,5,6,6,7,7,8,8,9,9,10,10,11,11,12,12,14,14,15,15,16,16,17,17,18,18,19,19,20,20,22,22,24,24,26,26,27,27,35,35,36,36,37,37,38,38,48,48],"right_children":[2,4,6,8,10,12,14,16,18,20,22,24,26,-1,28,30,32,34,36,38,40,-1,42,-1,44,-1,46,48,-1,-1,-1,-1,-1,-1,-1,50,52,54,56,-1,-1,-1,-1,-1,-1,-1,-1,-1,58,-1,-1,-1,-1,-1,-1,-1,-1,-1,-1],"split_conditions":[-1.8750334E0,-7.635039E-1,-1.1517726E0,-1.1367415E-1,-1.0466628E0,1.5629072E0,-6.271651E-1,-2.7007622E-1,-6.127958E-1,1.0316E-1,-1.6985877E0,-9.9255905E-2,9.214836E-1,1.3567561E-2,1.3063718E0,2.116121E0,-8.4359E-2,-6.6859506E-2,1.9378936E0,1.2432894E0,1.1069628E0,1.8859722E-2,-2.156014E0,-6.2617786E-2,1.24813005E-1,-1.791186E-2,-6.625988E-1,-2.0745366E0,1.3144823E-2,-6.3922025E-2,1.8701656E-2,-1.4515774E-2,6.1898638E-2,5.0846185E-3,-2.7275E-2,-8.7219924E-1,-6.324941E-2,-8.5568064E-1,1.6743788E0,-5.860556E-2,1.3232273E-2,5.2240337E-3,-7.877379E-2,4.5899637E-2,-2.8678535E-2,6.616411E-3,8.31353E-2,1.5007501E-4,8.4364426E-1,-5.57627E-3,1.0372219E-1,1.7960733E-2,-3.460731E-2,4.197125E-2,-4.675009E-2,9.2196636E-2,-1.4208959E-2,-9.594019E-2,-2.162449E-3],"split_indices":[57,378,274,432,162,17,748,154,318,266,740,686,276,0,23,436,322,627,49,245,27,0,305,0,579,0,477,742,0,0,0,0,0,0,0,588,29,185,436,0,0,0,0,0,0,0,0,0,20,0,0,0,0,0,0,0,0,0,0],"split_type":[0,0,0,0,0,0,0,0,0,0,0,0,0,0,0,0,0,0,0,0,0,0,0,0,0,0,0,0,0,0,0,0,0,0,0,0,0,0,0,0,0,0,0,0,0,0,0,0,0,0,0,0,0,0,0,0,0,0,0],"sum_hessian":[1.5366658E2,8.9151665E1,6.4514915E1,5.030193E1,3.884973E1,1.5186844E1,4.9328075E1,1.2397224E1,3.7904705E1,2.3715107E1,1.5134624E1,1.0096896E1,5.0899477E0,1.7616509E0,4.7566425E1,6.6435323E0,5.753692E0,2.2264042E0,3.5678303E1,1.722773E1,6.487377E0,1.5133134E0,1.362131E1,6.351282E0,3.7456138E0,1.7057432E0,3.3842046E0,4.65406E1,1.0258219E0,5.589431E0,1.0541015E0,1.5911018E0,4.1625905E0,1.007327E0,1.2190772E0,3.3481926E1,2.196376E0,5.9472585E0,1.1280472E1,5.472226E0,1.0151513E0,1.1429724E0,1.2478337E1,2.006041E0,1.7395726E0,1.0808256E0,2.303379E0,1.7795069E0,4.4761093E1,2.640039E0,3.0841887E1,1.0171902E0,1.1791857E0,1.7071903E0,4.2400684E0,9.305576E0,1.9748957E0,4.3756367E1,1.0047294E0],"tree_param":{"num_deleted":"0","num_feature":"768","num_nodes":"59","size_leaf_vector":"1"}},{"base_weights":[-1.09285906E-1,2.80227E-1,-6.313413E-1,5.2016276E-1,-2.838549E-1,2.296783E-2,-8.0165845E-1,6.9585586E-1,-8.718866E-3,2.43361E-1,-5.3297085E-1,-3.2316872E-1,4.7494248E-1,-8.773493E-1,1.08918145E-1,8.389275E-1,-8.846659E-2,3.924697E-1,-3.9197898E-1,6.2927115E-1,-3.487648E-2,-7.059869E-1,2.4062642E-1,2.5214744E-1,-5.485981E-1,-2.3439772E-2,7.2221327E-1,3.3394504E-2,-9.286246E-1,4.9587213E-2,-3.1488013E-2,9.138905E-1,-2.0573178E-2,4.427873E-2,-4.11592E-1,6.1424804E-1,-2.219498E-2,2.1686254E-2,-5.457591E-1,9.4178766E-1,-2.5175307E-2,-7.8228647E-1,8.99583E-3,4.9097613E-2,-2.1760141E-2,3.9152216E-2,-8.672317E-3,-5.8466356E-2,-3.003701E-3,8.164785E-2,2.9709514E-3,-2.4046674E-2,2.9854555E-2,-2.6446094E-3,-9.459259E-2,-2.685717E-3,9.8649606E-2,1.3324954E-2,-5.4659557E-2,7.041342E-2,-3.2292202E-3,1.3870302E-2,-6.864304E-2,8.257562E-3,1.0467034E-1,-8.128165E-2,-4.5139124E-3],"categories":[],"categories_nodes":[],"categories_segments":[],"categories_sizes":[],"default_left":[0,0,0,0,0,0,0,0,0,0,0,0,0,0,0,0,0,0,0,0,0,0,0,0,0,0,0,0,0,0,0,0,0,0,0,0,0,0,0,0,0,0,0,0,0,0,0,0,0,0,0,0,0,0,0,0,0,0,0,0,0,0,0,0,0,0,0],"id":16,"left_children":[1,3,5,7,9,11,13,15,17,19,21,23,25,27,29,31,33,35,37,39,-1,41,43,45,47,-1,49,51,53,-1,-1,55,-1,-1,57,59,-1,-1,61,63,-1,65,-1,-1,-1,-1,-1,-1,-1,-1,-1,-1,-1,-1,-1,-1,-1,-1,-1,-1,-1,-1,-1,-1,-1,-1,-1],"loss_changes":[3.1442572E1,1.2854922E1,7.419182E0,6.0306377E0,4.582225E0,3.6523612E0,4.083046E0,5.8172836E0,4.004365E0,4.0778875E0,3.7815943E0,2.4319115E0,2.6043012E0,2.4361305E0,2.168431E0,4.1918163E0,2.9729803E0,2.4228828E0,1.8334837E0,3.85069E0,0E0,1.5163288E0,1.4213077E0,5.0997484E-1,1.2194133E-1,0E0,4.438157E-1,8.984738E-1,5.994301E-1,0E0,0E0,2.841526E0,0E0,0E0,1.1040941E0,7.364664E-1,0E0,0E0,1.6323993E0,3.0702066E-1,0E0,2.219286E-1,0E0,0E0,0E0,0E0,0E0,0E0,0E0,0E0,0E0,0E0,0E0,0E0,0E0,0E0,0E0,0E0,0E0,0E0,0E0,0E0,0E0,0E0,0E0,0E0,0E0],"parents":[2147483647,0,0,1,1,2,2,3,3,4,4,5,5,6,6,7,7,8,8,9,9,10,10,11,11,12,12,13,13,14,14,15,15,16,16,17,17,18,18,19,19,21,21,22,22,23,23,24,24,26,26,27,27,28,28,31,31,34,34,35,35,38,38,39,39,41,41],"right_children":[2,4,6,8,10,12,14,16,18,20,22,24,26,28,30,32,34,36,38,40,-1,42,44,46,48,-1,50,52,54,-1,-1,56,-1,-1,58,60,-1,-1,62,64,-1,66,-1,-1,-1,-1,-1,-1,-1,-1,-1,-1,-1,-1,-1,-1,-1,-1,-1,-1,-1,-1,-1,-1,-1,-1,-1],"split_conditions":[-1.8791194E0,-3.8122487E-1,-1.1893657E0,6.1955917E-1,2.934786E-1,-1.9707361E-2,1.4974378E-1,9.1016555E-1,3.5512158E-1,-1.5061422E-1,-5.355722E-1,-4.1420662E-1,9.2979014E-2,-1.8674622E0,-1.1377974E0,3.206074E-1,-2.3365512E-2,1.036087E0,-1.4925032E0,1.5862368E-1,-3.487648E-2,4.4784856E-1,-1.2644808E0,-8.469014E-1,2.2812366E-1,-2.3439772E-2,1.2883343E0,5.860671E-1,-1.7394481E0,4.9587213E-2,-3.1488013E-2,-9.1703284E-1,-2.0573178E-2,4.427873E-2,-5.4263484E-1,4.944572E-1,-2.219498E-2,2.1686254E-2,-1.6450558E0,6.3089275E-1,-2.5175307E-2,3.415341E-1,8.99583E-3,4.9097613E-2,-2.1760141E-2,3.9152216E-2,-8.672317E-3,-5.8466356E-2,-3.003701E-3,8.164785E-2,2.9709514E-3,-2.4046674E-2,2.9854555E-2,-2.6446094E-3,-9.459259E-2,-2.685717E-3,9.8649606E-2,1.3324954E-2,-5.4659557E-2,7.041342E-2,-3.2292202E-3,1.3870302E-2,-6.864304E-2,8.257562E-3,1.0467034E-1,-8.128165E-2,-4.5139124E-3],"split_indices":[57,730,274,118,516,243,395,591,657,495,734,179,709,314,348,240,272,519,500,45,0,156,714,103,151,0,390,130,400,0,0,137,0,0,459,505,0,0,340,272,0,454,0,0,0,0,0,0,0,0,0,0,0,0,0,0,0,0,0,0,0,0,0,0,0,0,0],"split_type":[0,0,0,0,0,0,0,0,0,0,0,0,0,0,0,0,0,0,0,0,0,0,0,0,0,0,0,0,0,0,0,0,0,0,0,0,0,0,0,0,0,0,0,0,0,0,0,0,0,0,0,0,0,0,0,0,0,0,0,0,0,0,0,0,0,0,0],"sum_hessian":[1.452748E2,8.452535E1,6.0749443E1,5.9574337E1,2.495102E1,1.3440535E1,4.730891E1,4.353392E1,1.6040417E1,8.043559E0,1.690746E1,8.418389E0,5.0221457E0,4.384665E1,3.4622622E0,3.6523422E1,7.0104985E0,7.7782063E0,8.26221E0,4.6798606E0,3.363698E0,1.4174336E1,2.7331238E0,2.2031493E0,6.2152395E0,1.3654406E0,3.656705E0,2.4299445E0,4.1416702E1,1.3653144E0,2.096948E0,3.4662025E1,1.861395E0,1.9510783E0,5.05942E0,5.7162776E0,2.0619285E0,1.2524576E0,7.009752E0,3.1999357E0,1.479925E0,1.3012734E1,1.1616021E0,1.5363909E0,1.1967329E0,1.0106212E0,1.1925281E0,5.215165E0,1.0000745E0,2.4307115E0,1.2259935E0,1.4243158E0,1.0056286E0,1.0172054E0,4.0399498E1,2.70922E0,3.1952806E1,1.017599E0,4.0418215E0,4.6275277E0,1.0887496E0,1.2069715E0,5.8027806E0,1.3205508E0,1.8793848E0,1.2002382E1,1.0103519E0],"tree_param":{"num_deleted":"0","num_feature":"768","num_nodes":"67","size_leaf_vector":"1"}},{"base_weights":[-8.3801314E-2,-5.628E-1,3.7963754E-1,2.8544146E-1,-7.617782E-1,-1.919648E-1,5.6490993E-1,6.995675E-1,-2.9225445E-1,-8.2433426E-1,3.0743295E-1,2.4341202E-1,-5.1283926E-1,-3.1274965E-1,6.5988696E-1,-1.9987218E-2,8.8803065E-1,-5.1707137E-2,2.8385943E-2,-8.7602985E-1,7.541018E-2,4.2405587E-2,-6.5454803E-3,-3.6782503E-2,5.631685E-1,2.4971796E-2,-6.605493E-1,-4.7036204E-2,1.5479706E-2,7.7928805E-1,-1.1741032E-1,1.0147828E-1,-5.257808E-3,4.9596783E-3,-9.012213E-1,-2.8972214E-2,4.264951E-2,7.989342E-1,-2.3111923E-2,4.7447025E-3,-7.353421E-2,-2.0043354E-2,8.34149E-1,-3.959393E-1,3.80132E-2,-2.198966E-4,-9.306181E-2,-5.031765E-3,9.3774416E-2,9.226837E-2,-2.4732912E-3,1.5718488E-2,-5.457985E-2],"categories":[],"categories_nodes":[],"categories_segments":[],"categories_sizes":[],"default_left":[0,0,0,0,0,0,0,0,0,0,0,0,0,0,0,0,0,0,0,0,0,0,0,0,0,0,0,0,0,0,0,0,0,0,0,0,0,0,0,0,0,0,0,0,0,0,0,0,0,0,0,0,0],"id":17,"left_children":[1,3,5,7,9,11,13,15,17,19,21,23,25,27,29,-1,31,-1,-1,33,35,-1,-1,-1,37,-1,39,-1,-1,41,43,-1,-1,-1,45,-1,-1,47,-1,-1,-1,-1,49,51,-1,-1,-1,-1,-1,-1,-1,-1,-1],"loss_changes":[3.3598938E1,1.3589884E1,8.746159E0,5.2596693E0,5.371502E0,3.7946432E0,6.0143795E0,2.8859777E0,2.14852E0,3.0899315E0,4.4465303E-1,3.5804505E0,2.4776847E0,1.0441477E0,5.612484E0,0E0,1.5384283E0,0E0,0E0,1.5410156E0,1.6212344E0,0E0,0E0,0E0,2.8939567E0,0E0,8.980613E-1,0E0,0E0,3.4589958E0,2.379653E0,0E0,0E0,0E0,1.450386E0,0E0,0E0,1.3247991E0,0E0,0E0,0E0,0E0,3.7019424E0,1.2559129E0,0E0,0E0,0E0,0E0,0E0,0E0,0E0,0E0,0E0],"parents":[2147483647,0,0,1,1,2,2,3,3,4,4,5,5,6,6,7,7,8,8,9,9,10,10,11,11,12,12,13,13,14,14,16,16,19,19,20,20,24,24,26,26,29,29,30,30,34,34,37,37,42,42,43,43],"right_children":[2,4,6,8,10,12,14,16,18,20,22,24,26,28,30,-1,32,-1,-1,34,36,-1,-1,-1,38,-1,40,-1,-1,42,44,-1,-1,-1,46,-1,-1,48,-1,-1,-1,-1,50,52,-1,-1,-1,-1,-1,-1,-1,-1,-1],"split_conditions":[8.876637E-1,-9.9188054E-1,1.9334994E-2,6.852917E-2,1.8580893E0,5.881404E-1,1.2583263E0,-6.403769E-1,2.026554E0,1.3464966E0,4.02933E-2,-5.4371213E-3,-1.7017454E0,2.3428671E-1,1.09589204E-1,-1.9987218E-2,1.1165304E-1,-5.1707137E-2,2.8385943E-2,-1.7803526E0,6.837753E-1,4.2405587E-2,-6.5454803E-3,-3.6782503E-2,7.867975E-2,2.4971796E-2,-7.8311986E-1,-4.7036204E-2,1.5479706E-2,-1.0135831E0,1.0188196E0,1.0147828E-1,-5.257808E-3,4.9596783E-3,-1.3597386E0,-2.8972214E-2,4.264951E-2,-7.123327E-1,-2.3111923E-2,4.7447025E-3,-7.353421E-2,-2.0043354E-2,1.0312228E0,-1.5639241E0,3.80132E-2,-2.198966E-4,-9.306181E-2,-5.031765E-3,9.3774416E-2,9.226837E-2,-2.4732912E-3,1.5718488E-2,-5.457985E-2],"split_indices":[751,378,679,586,121,355,392,31,596,230,503,415,502,501,684,0,270,0,0,177,53,0,0,0,149,0,503,0,0,588,757,0,0,0,565,0,0,547,0,0,0,0,642,630,0,0,0,0,0,0,0,0,0],"split_type":[0,0,0,0,0,0,0,0,0,0,0,0,0,0,0,0,0,0,0,0,0,0,0,0,0,0,0,0,0,0,0,0,0,0,0,0,0,0,0,0,0,0,0,0,0,0,0,0,0,0,0,0,0],"sum_hessian":[1.4154324E2,6.907601E1,7.2467224E1,1.2712047E1,5.6363968E1,1.7694757E1,5.4772465E1,6.7898674E0,5.9221797E0,5.4330402E1,2.0335667E0,8.019964E0,9.674794E0,4.228982E0,5.0543484E1,1.1238085E0,5.6660585E0,4.6284432E0,1.2937363E0,5.1503036E1,2.8273635E0,1.0264362E0,1.0071306E0,2.4963577E0,5.5236063E0,1.0096207E0,8.665174E0,3.1402724E0,1.0887094E0,4.3802197E1,6.7412863E0,4.6457334E0,1.0203253E0,1.2362083E0,5.026683E1,1.814336E0,1.0130275E0,4.2367706E0,1.2868357E0,1.0025964E0,7.662577E0,1.6191705E0,4.2183025E1,4.976464E0,1.7648227E0,1.761774E0,4.8505054E1,1.0430187E0,3.1937518E0,3.790437E1,4.278656E0,1.0087587E0,3.967705E0],"tree_param":{"num_deleted":"0","num_feature":"768","num_nodes":"53","size_leaf_vector":"1"}},{"base_weights":[-5.7935145E-2,2.8568405E-1,-6.149177E-1,5.097048E-1,-2.4184392E-1,2.9179654E-1,-7.5847584E-1,6.471886E-1,-2.2367497E-1,-4.701704E-1,4.4986236E-1,-2.7868707E-2,5.39986E-1,-8.264607E-1,2.770994E-2,8.1155527E-1,4.9741905E-2,-5.1638257E-2,1.4407983E-1,-6.35607E-1,2.810342E-1,6.752025E-1,-2.2498887E-2,-1.6407555E-2,7.4601315E-2,-8.859722E-1,2.5614766E-2,-2.2487625E-2,8.6665666E-1,5.490246E-1,-3.530264E-1,-3.399751E-2,4.6821982E-1,1.1004857E-2,-7.2712356E-1,5.4166365E-2,-2.2758368E-2,8.252764E-2,-6.137028E-3,7.40759E-2,-9.409733E-2,9.619902E-2,-8.2603766E-4,-1.5894042E-2,7.34715E-2,-6.0585994E-2,2.847676E-2,5.8223665E-2,-4.137557E-3,1.1738902E-2,-8.032483E-2,2.9689372E-2,-2.0173451E-2],"categories":[],"categories_nodes":[],"categories_segments":[],"categories_sizes":[],"default_left":[0,0,0,0,0,0,0,0,0,0,0,0,0,0,0,0,0,0,0,0,0,0,0,0,0,0,0,0,0,0,0,0,0,0,0,0,0,0,0,0,0,0,0,0,0,0,0,0,0,0,0,0,0],"id":18,"left_children":[1,3,5,7,9,11,13,15,17,19,21,-1,23,25,-1,27,29,-1,31,33,35,37,-1,-1,-1,39,-1,-1,41,43,45,-1,47,-1,49,-1,-1,-1,-1,51,-1,-1,-1,-1,-1,-1,-1,-1,-1,-1,-1,-1,-1],"loss_changes":[2.856882E1,1.1594147E1,8.498507E0,7.4603386E0,5.9662347E0,2.3627217E0,4.69446E0,5.4494705E0,1.9073896E0,4.100957E0,2.3211014E0,0E0,2.0085003E0,4.2636147E0,0E0,3.5332584E0,4.5371413E0,0E0,2.4011164E0,1.9482031E0,1.6935064E0,1.2423177E0,0E0,0E0,0E0,2.8385162E0,0E0,0E0,3.6741943E0,1.8826101E0,2.9370275E0,0E0,5.986793E-1,0E0,1.812747E0,0E0,0E0,0E0,0E0,7.4134994E-1,0E0,0E0,0E0,0E0,0E0,0E0,0E0,0E0,0E0,0E0,0E0,0E0,0E0],"parents":[2147483647,0,0,1,1,2,2,3,3,4,4,5,5,6,6,7,7,8,8,9,9,10,10,12,12,13,13,15,15,16,16,18,18,19,19,20,20,21,21,25,25,28,28,29,29,30,30,32,32,34,34,39,39],"right_children":[2,4,6,8,10,12,14,16,18,20,22,-1,24,26,-1,28,30,-1,32,34,36,38,-1,-1,-1,40,-1,-1,42,44,46,-1,48,-1,50,-1,-1,-1,-1,52,-1,-1,-1,-1,-1,-1,-1,-1,-1,-1,-1,-1,-1],"split_conditions":[-1.0232227E0,-3.8122487E-1,-7.5687975E-1,1.5758093E-1,6.970182E-1,2.698829E-1,1.4430467E0,-7.8021747E-1,1.2500892E0,4.9092355E-1,-8.106161E-2,-2.7868707E-2,-4.7841427E-1,1.8580893E0,2.770994E-2,3.9554197E-1,-4.3100727E-1,-5.1638257E-2,-8.982801E-1,-8.7766916E-1,2.934786E-1,1.1323447E0,-2.2498887E-2,-1.6407555E-2,7.4601315E-2,-1.0149401E0,2.5614766E-2,-2.2487625E-2,3.9167297E-1,-6.412163E-1,5.4287004E-1,-3.399751E-2,3.1102324E-1,1.1004857E-2,-1.2769737E0,5.4166365E-2,-2.2758368E-2,8.252764E-2,-6.137028E-3,4.7813737E-1,-9.409733E-2,9.619902E-2,-8.2603766E-4,-1.5894042E-2,7.34715E-2,-6.0585994E-2,2.847676E-2,5.8223665E-2,-4.137557E-3,1.1738902E-2,-8.032483E-2,2.9689372E-2,-2.0173451E-2],"split_indices":[162,730,266,240,34,709,335,297,420,20,660,0,206,121,0,751,349,0,550,352,516,640,0,0,0,310,0,0,81,646,544,0,675,0,31,0,0,0,0,564,0,0,0,0,0,0,0,0,0,0,0,0,0],"split_type":[0,0,0,0,0,0,0,0,0,0,0,0,0,0,0,0,0,0,0,0,0,0,0,0,0,0,0,0,0,0,0,0,0,0,0,0,0,0,0,0,0,0,0,0,0,0,0,0,0,0,0,0,0],"sum_hessian":[1.396809E2,8.7892685E1,5.17882E1,6.1812313E1,2.6080374E1,6.3730397E0,4.541516E1,5.2548824E1,9.263488E0,2.0811909E1,5.2684655E0,1.7457925E0,4.6272473E0,4.356481E1,1.8503482E0,3.9805786E1,1.2743039E1,4.0328608E0,5.230627E0,1.7686298E1,3.1256106E0,3.9476876E0,1.3207779E0,1.2780032E0,3.3492439E0,4.2155655E1,1.4091576E0,1.2317352E0,3.857405E1,4.879115E0,7.863924E0,1.9998636E0,3.2307632E0,1.8227177E0,1.5863581E1,1.8518268E0,1.2737839E0,2.779282E0,1.1684057E0,2.1902714E0,3.996538E1,3.4335182E1,4.238869E0,1.1634849E0,3.7156303E0,5.810772E0,2.0531518E0,2.0576496E0,1.1731135E0,1.0876044E0,1.4775976E1,1.00011E0,1.1901613E0],"tree_param":{"num_deleted":"0","num_feature":"768","num_nodes":"53","size_leaf_vector":"1"}},{"base_weights":[-6.9942065E-2,-4.4882077E-1,3.8427517E-1,2.1952009E-1,-6.262165E-1,7.1919525E-1,8.371075E-2,-3.3721575E-1,5.711285E-1,-2.3438926E-1,-8.489971E-1,8.1726557E-1,-2.7860804E-2,4.730115E-1,-1.934619E-1,1.678398E-2,-4.763199E-2,-4.2015944E-2,8.7855667E-1,-5.8355504E-1,2.723461E-1,6.50249E-3,-8.848939E-1,9.1567785E-1,-1.8391987E-2,6.497988E-1,-2.9896637E-2,3.3542103E-1,-4.3489668E-1,3.7557937E-2,-3.8821626E-2,9.808484E-2,3.6080119E-3,-7.2526944E-1,1.2569314E-1,7.1676695E-1,-3.0325732E-1,-1.3998408E-3,-9.072793E-2,8.833963E-3,1.0248474E0,-8.174925E-2,8.201739E-1,5.78658E-2,-1.2483225E-1,-6.078462E-1,2.1977374E-1,-4.965012E-3,-7.52698E-2,-2.359317E-2,4.0608842E-2,1.01762794E-1,-1.7330104E-2,-4.9389876E-2,2.366813E-2,3.132006E-2,-3.1088302E-2,1.077582E-1,1.3857156E-3,-3.56575E-2,2.72863E-2,2.7498037E-3,9.027033E-2,-3.2184467E-2,2.0973967E-2,-7.901386E-2,1.226681E-2,4.300201E-2,-2.0026766E-2],"categories":[],"categories_nodes":[],"categories_segments":[],"categories_sizes":[],"default_left":[0,0,0,0,0,0,0,0,0,0,0,0,0,0,0,0,0,0,0,0,0,0,0,0,0,0,0,0,0,0,0,0,0,0,0,0,0,0,0,0,0,0,0,0,0,0,0,0,0,0,0,0,0,0,0,0,0,0,0,0,0,0,0,0,0,0,0,0,0],"id":19,"left_children":[1,3,5,7,9,11,13,15,17,19,21,23,-1,25,27,-1,-1,29,31,33,35,-1,37,39,-1,41,-1,43,45,-1,-1,-1,-1,47,49,51,53,-1,-1,55,57,59,61,-1,63,65,67,-1,-1,-1,-1,-1,-1,-1,-1,-1,-1,-1,-1,-1,-1,-1,-1,-1,-1,-1,-1,-1,-1],"loss_changes":[2.4796652E1,9.950916E0,6.337225E0,4.8958297E0,4.508106E0,4.126071E0,4.8182673E0,1.166967E0,2.8556204E0,6.0599136E0,1.543827E0,3.7062683E0,0E0,3.4631686E0,4.196778E0,0E0,0E0,2.103036E0,6.560736E-1,2.386551E0,5.064397E0,0E0,6.613331E-1,2.657856E0,0E0,2.3832603E0,0E0,1.629996E0,3.0254002E0,0E0,0E0,0E0,0E0,1.235199E-1,1.2355224E0,3.6294956E0,1.6434839E0,0E0,0E0,1.263124E0,1.2223129E0,1.2321016E0,7.7742577E-1,0E0,8.6691225E-1,2.8546991E0,1.1391476E0,0E0,0E0,0E0,0E0,0E0,0E0,0E0,0E0,0E0,0E0,0E0,0E0,0E0,0E0,0E0,0E0,0E0,0E0,0E0,0E0,0E0,0E0],"parents":[2147483647,0,0,1,1,2,2,3,3,4,4,5,5,6,6,7,7,8,8,9,9,10,10,11,11,13,13,14,14,17,17,18,18,19,19,20,20,22,22,23,23,25,25,27,27,28,28,33,33,34,34,35,35,36,36,39,39,40,40,41,41,42,42,44,44,45,45,46,46],"right_children":[2,4,6,8,10,12,14,16,18,20,22,24,-1,26,28,-1,-1,30,32,34,36,-1,38,40,-1,42,-1,44,46,-1,-1,-1,-1,48,50,52,54,-1,-1,56,58,60,62,-1,64,66,68,-1,-1,-1,-1,-1,-1,-1,-1,-1,-1,-1,-1,-1,-1,-1,-1,-1,-1,-1,-1,-1,-1],"split_conditions":[1.061405E0,-9.9188054E-1,7.604595E-1,1.6745767E-1,-1.0336463E0,4.1090983E-1,-4.7318533E-1,-1.4485577E0,-3.228102E-2,1.4169131E-1,-1.5364031E0,3.1064165E-1,-2.7860804E-2,2.4180138E-1,-3.0563366E-1,1.678398E-2,-4.763199E-2,-1.0230901E0,2.3026975E-2,3.9488086E-1,1.1004962E-1,6.50249E-3,-1.9655597E0,-2.2421448E0,-1.8391987E-2,-5.6535673E-1,-2.9896637E-2,-2.0847166E-1,2.0803056E0,3.7557937E-2,-3.8821626E-2,9.808484E-2,3.6080119E-3,-1.5501585E0,9.2763644E-1,7.660945E-1,9.274229E-1,-1.3998408E-3,-9.072793E-2,-2.022363E0,1.4306179E0,1.2461307E0,-7.811143E-1,5.78658E-2,6.515295E-1,6.986464E-1,-1.3152766E0,-4.965012E-3,-7.52698E-2,-2.359317E-2,4.0608842E-2,1.01762794E-1,-1.7330104E-2,-4.9389876E-2,2.366813E-2,3.132006E-2,-3.1088302E-2,1.077582E-1,1.3857156E-3,-3.56575E-2,2.72863E-2,2.7498037E-3,9.027033E-2,-3.2184467E-2,2.0973967E-2,-7.901386E-2,1.226681E-2,4.300201E-2,-2.0026766E-2],"split_indices":[751,378,358,65,162,45,266,520,431,275,177,240,0,264,659,0,0,583,146,727,178,0,425,283,0,760,0,166,333,0,0,0,0,173,408,666,275,0,0,250,460,412,694,0,397,141,509,0,0,0,0,0,0,0,0,0,0,0,0,0,0,0,0,0,0,0,0,0,0],"split_type":[0,0,0,0,0,0,0,0,0,0,0,0,0,0,0,0,0,0,0,0,0,0,0,0,0,0,0,0,0,0,0,0,0,0,0,0,0,0,0,0,0,0,0,0,0,0,0,0,0,0,0,0,0,0,0,0,0,0,0,0,0,0,0,0,0,0,0,0,0],"sum_hessian":[1.340775E2,7.313358E1,6.0943916E1,1.5090942E1,5.804264E1,2.5530785E1,3.541313E1,5.9207344E0,9.170208E0,2.4758268E1,3.3284374E1,2.4069736E1,1.461048E0,1.325838E1,2.215475E1,1.0555149E0,4.8652196E0,4.503981E0,4.666227E0,1.4209342E1,1.0548926E1,1.1044745E0,3.21799E1,2.2304346E1,1.7653909E0,1.1431776E1,1.8266035E0,6.3337455E0,1.5821006E1,1.8491654E0,2.6548154E0,3.4287002E0,1.2375265E0,1.1748864E1,2.460478E0,5.260836E0,5.2880898E0,1.0100746E0,3.1169825E1,2.977297E0,1.932705E1,2.650802E0,8.780974E0,3.3022542E0,3.0314915E0,1.2797741E1,3.0232651E0,1.0065433E0,1.074232E1,1.4208655E0,1.0396127E0,3.396258E0,1.864578E0,4.223279E0,1.064811E0,1.5774717E0,1.3998252E0,1.805589E1,1.271159E0,1.4778153E0,1.1729866E0,1.4566026E0,7.3243713E0,2.0276902E0,1.0038013E0,9.915364E0,2.8823762E0,1.9356285E0,1.0876365E0],"tree_param":{"num_deleted":"0","num_feature":"768","num_nodes":"69","size_leaf_vector":"1"}},{"base_weights":[-6.656722E-2,-7.1090823E-1,1.8932466E-1,2.7541256E-2,-7.727603E-1,-3.534677E-1,3.831466E-1,-8.297385E-1,6.38881E-2,1.3984148E-1,-6.521516E-1,5.0687003E-1,-3.9411908E-1,-8.7683326E-1,1.3452348E-2,-1.9748399E-2,2.7718266E-2,6.2960863E-1,-4.0702125E-1,1.5343911E-2,-7.5911306E-2,-1.01312995E-1,6.6460764E-1,2.406974E-2,-5.419559E-1,-2.4582574E-3,-8.98785E-2,7.922466E-1,-1.1616973E-2,-5.3381424E-2,1.097425E-2,3.5985997E-1,-5.0582576E-1,7.549423E-1,-3.172276E-1,4.2383797E-3,-6.134088E-2,8.644711E-2,3.8386271E-3,5.7670273E-2,-1.7935488E-2,1.2606881E-2,-6.387823E-2,-3.141288E-2,8.249008E-2,-4.494553E-2,1.0547179E-2],"categories":[],"categories_nodes":[],"categories_segments":[],"categories_sizes":[],"default_left":[0,0,0,0,0,0,0,0,0,0,0,0,0,0,0,0,0,0,0,0,0,0,0,0,0,0,0,0,0,0,0,0,0,0,0,0,0,0,0,0,0,0,0,0,0,0,0],"id":20,"left_children":[1,3,5,-1,7,9,11,13,15,17,19,21,23,25,-1,-1,-1,27,29,-1,-1,31,33,-1,35,-1,-1,37,-1,-1,-1,39,41,43,45,-1,-1,-1,-1,-1,-1,-1,-1,-1,-1,-1,-1],"loss_changes":[2.3218552E1,3.499464E0,1.1388987E1,0E0,2.1183739E0,4.78668E0,8.444662E0,2.258936E0,6.7070806E-1,5.3528643E0,2.2359467E0,6.954317E0,1.914046E0,5.575962E-1,0E0,0E0,0E0,1.6709917E0,9.624803E-1,0E0,0E0,4.3697233E0,6.1143265E0,0E0,6.4952755E-1,0E0,0E0,3.151126E-1,0E0,0E0,0E0,1.8720003E0,1.4072902E0,5.203087E0,6.9486207E-1,0E0,0E0,0E0,0E0,0E0,0E0,0E0,0E0,0E0,0E0,0E0,0E0],"parents":[2147483647,0,0,1,1,2,2,4,4,5,5,6,6,7,7,8,8,9,9,10,10,11,11,12,12,13,13,17,17,18,18,21,21,22,22,24,24,27,27,31,31,32,32,33,33,34,34],"right_children":[2,4,6,-1,8,10,12,14,16,18,20,22,24,26,-1,-1,-1,28,30,-1,-1,32,34,-1,36,-1,-1,38,-1,-1,-1,40,42,44,46,-1,-1,-1,-1,-1,-1,-1,-1,-1,-1,-1,-1],"split_conditions":[4.055214E-1,-1.7265929E0,-3.629339E-2,2.7541256E-2,1.0825533E0,4.20008E-1,-5.2452695E-1,1.4489615E0,5.8272314E-1,4.7634375E-1,8.3327286E-2,-2.241764E0,-4.254705E-1,-1.302565E0,1.3452348E-2,-1.9748399E-2,2.7718266E-2,-2.4373831E-1,-3.1935802E-1,1.5343911E-2,-7.5911306E-2,-6.1648947E-1,1.2735286E0,2.406974E-2,-3.7658992E-3,-2.4582574E-3,-8.98785E-2,3.72537E-2,-1.1616973E-2,-5.3381424E-2,1.097425E-2,1.4910318E-1,1.3883612E-1,-3.2592326E-1,5.9042966E-1,4.2383797E-3,-6.134088E-2,8.644711E-2,3.8386271E-3,5.7670273E-2,-1.7935488E-2,1.2606881E-2,-6.387823E-2,-3.141288E-2,8.249008E-2,-4.494553E-2,1.0547179E-2],"split_indices":[751,600,679,0,679,247,274,303,460,697,76,618,639,252,0,0,0,184,249,0,0,471,675,0,584,0,0,715,0,0,0,322,535,97,159,0,0,0,0,0,0,0,0,0,0,0,0],"split_type":[0,0,0,0,0,0,0,0,0,0,0,0,0,0,0,0,0,0,0,0,0,0,0,0,0,0,0,0,0,0,0,0,0,0,0,0,0,0,0,0,0,0,0,0,0,0,0],"sum_hessian":[1.3173804E2,3.4919426E1,9.681862E1,1.0418466E0,3.387758E1,2.4391794E1,7.242682E1,3.1756182E1,2.1213958E0,1.0201665E1,1.4190129E1,6.3981754E1,8.445068E0,3.0709661E1,1.0465208E0,1.1198071E0,1.0015887E0,4.982666E0,5.218999E0,1.4085867E0,1.2781542E1,1.3545076E1,5.0436676E1,1.001962E0,7.4431067E0,1.0372891E0,2.9672373E1,3.8348315E0,1.1478348E0,4.0582848E0,1.1607139E0,6.5871716E0,6.957905E0,4.724529E1,3.19139E0,1.0326089E0,6.4104977E0,2.8300648E0,1.0047667E0,4.450007E0,2.1371648E0,1.2545413E0,5.7033634E0,1.829943E0,4.5415344E1,2.1898718E0,1.0015184E0],"tree_param":{"num_deleted":"0","num_feature":"768","num_nodes":"47","size_leaf_vector":"1"}},{"base_weights":[-7.408987E-2,-6.882123E-1,1.6860136E-1,1.5104884E-1,-7.923597E-1,-2.1919434E-1,4.2230585E-1,-3.0700922E-2,5.4285884E-2,1.0614946E-2,-8.3666575E-1,-5.08723E-1,2.0604761E-1,6.6632706E-1,-8.9096904E-2,-8.800486E-2,-4.4119223E-3,-6.5551E-1,1.1413059E-1,6.132197E-1,-1.4515133E-1,-1.3386317E-1,7.5659215E-1,-3.766418E-1,3.023755E-1,-7.621907E-1,1.6006792E-2,-2.8335715E-2,4.515921E-2,-1.0067461E-2,7.475687E-1,4.4365785E-1,-4.753891E-1,-3.5875697E-2,2.3550637E-2,1.1639048E-1,9.374084E-1,-5.655423E-1,1.252507E-1,-3.2251377E-2,5.8811355E-1,6.004527E-3,-8.260585E-2,-9.3046034E-4,8.566219E-2,-1.2269895E-2,6.273215E-2,9.033794E-3,-5.9997953E-2,4.767389E-2,-2.6895253E-2,1.0063257E-1,-1.5985174E-2,-6.528988E-2,5.0826985E-3,-2.4934331E-2,3.7758585E-2,-1.2508887E-2,7.4727535E-2],"categories":[],"categories_nodes":[],"categories_segments":[],"categories_sizes":[],"default_left":[0,0,0,0,0,0,0,0,0,0,0,0,0,0,0,0,0,0,0,0,0,0,0,0,0,0,0,0,0,0,0,0,0,0,0,0,0,0,0,0,0,0,0,0,0,0,0,0,0,0,0,0,0,0,0,0,0,0,0],"id":21,"left_children":[1,3,5,7,9,11,13,-1,-1,-1,15,17,19,21,23,-1,-1,25,27,29,31,33,35,37,39,41,-1,-1,-1,-1,43,45,47,-1,-1,49,51,53,55,-1,57,-1,-1,-1,-1,-1,-1,-1,-1,-1,-1,-1,-1,-1,-1,-1,-1,-1,-1],"loss_changes":[1.9868626E1,3.8884926E0,9.984125E0,2.3327644E0,1.8089619E0,5.64156E0,7.810692E0,0E0,0E0,0E0,9.4867706E-1,2.7666845E0,3.3615177E0,3.493126E0,3.2552369E0,0E0,0E0,2.5171976E0,1.8805313E0,1.3739631E0,3.9699368E0,1.123553E0,3.8429623E0,1.8694286E0,3.247692E0,1.3115406E0,0E0,0E0,0E0,0E0,8.114171E-1,1.2142841E0,1.1181855E0,0E0,0E0,2.593167E0,2.9861546E0,8.3996964E-1,1.2707767E0,0E0,1.6714897E0,0E0,0E0,0E0,0E0,0E0,0E0,0E0,0E0,0E0,0E0,0E0,0E0,0E0,0E0,0E0,0E0,0E0,0E0],"parents":[2147483647,0,0,1,1,2,2,3,3,4,4,5,5,6,6,10,10,11,11,12,12,13,13,14,14,17,17,18,18,19,19,20,20,21,21,22,22,23,23,24,24,25,25,30,30,31,31,32,32,35,35,36,36,37,37,38,38,40,40],"right_children":[2,4,6,8,10,12,14,-1,-1,-1,16,18,20,22,24,-1,-1,26,28,30,32,34,36,38,40,42,-1,-1,-1,-1,44,46,48,-1,-1,50,52,54,56,-1,58,-1,-1,-1,-1,-1,-1,-1,-1,-1,-1,-1,-1,-1,-1,-1,-1,-1,-1],"split_conditions":[4.055214E-1,-9.195015E-1,2.2558971E-1,5.9283113E-1,-3.4627733E0,-5.239642E-1,-2.4368893E-2,-3.0700922E-2,5.4285884E-2,1.0614946E-2,6.747904E-1,1.2852807E0,6.6077656E-1,-1.0367712E0,-4.857919E-1,-8.800486E-2,-4.4119223E-3,3.082859E0,-2.6357782E-1,5.158406E-1,-5.019196E-1,5.0277823E-1,-1.6982478E-1,1.1291313E-1,-9.21694E-1,-1.324441E0,1.6006792E-2,-2.8335715E-2,4.515921E-2,-1.0067461E-2,4.342066E-1,6.630604E-1,-1.3733745E-1,-3.5875697E-2,2.3550637E-2,2.938411E-1,1.4889982E0,6.424006E-1,-5.480871E-1,-3.2251377E-2,-5.3890765E-1,6.004527E-3,-8.260585E-2,-9.3046034E-4,8.566219E-2,-1.2269895E-2,6.273215E-2,9.033794E-3,-5.9997953E-2,4.767389E-2,-2.6895253E-2,1.0063257E-1,-1.5985174E-2,-6.528988E-2,5.0826985E-3,-2.4934331E-2,3.7758585E-2,-1.2508887E-2,7.4727535E-2],"split_indices":[751,698,332,65,478,387,448,0,0,0,361,404,405,222,477,0,0,532,310,202,44,465,318,582,59,575,0,0,0,0,409,623,657,0,0,213,182,643,632,0,81,0,0,0,0,0,0,0,0,0,0,0,0,0,0,0,0,0,0],"split_type":[0,0,0,0,0,0,0,0,0,0,0,0,0,0,0,0,0,0,0,0,0,0,0,0,0,0,0,0,0,0,0,0,0,0,0,0,0,0,0,0,0,0,0,0,0,0,0,0,0,0,0,0,0,0,0,0,0,0,0],"sum_hessian":[1.2441615E2,3.2640827E1,9.177533E1,3.3548043E0,2.9286022E1,3.6564857E1,5.5210472E1,2.0455527E0,1.3092517E0,1.0482758E0,2.8237745E1,2.1169737E1,1.5395121E1,3.6350666E1,1.8859806E1,2.6248888E1,1.9888567E0,1.692006E1,4.249677E0,5.401903E0,9.993217E0,3.4400432E0,3.291062E1,1.09824095E1,7.8773956E0,1.5252297E1,1.6677623E0,2.319377E0,1.9303004E0,1.054076E0,4.347827E0,2.9737735E0,7.0194445E0,2.2274806E0,1.2125626E0,9.058034E0,2.3852589E1,7.518519E0,3.4638908E0,2.2698562E0,5.6075397E0,1.1209098E0,1.4131387E1,1.1235218E0,3.2243054E0,1.1346328E0,1.8391405E0,1.514982E0,5.5044622E0,4.067997E0,4.9900365E0,2.283286E1,1.0197289E0,6.3256693E0,1.1928498E0,1.4180557E0,2.0458353E0,1.2183796E0,4.38916E0],"tree_param":{"num_deleted":"0","num_feature":"768","num_nodes":"59","size_leaf_vector":"1"}},{"base_weights":[-3.0424414E-2,-5.596629E-1,2.3940054E-1,5.5797894E-2,-7.717666E-1,-1.1598208E-1,5.413841E-1,4.408676E-1,-3.0280456E-1,2.245754E-2,-8.5762985E-2,2.4688119E-1,-4.2896605E-1,-3.6919963E-2,6.343842E-1,6.2114984E-2,-1.220852E-2,-4.9970064E-1,2.0683836E-2,-2.7152076E-2,3.140911E-2,-3.093964E-1,5.79425E-1,-6.5268517E-1,3.137306E-1,-1.7968284E-1,7.607372E-1,-5.5753745E-2,-1.8644115E-4,2.2406287E-2,-5.161769E-2,8.240121E-1,-1.6063322E-1,1.1899298E-2,-7.452678E-1,-1.6653491E-2,5.190305E-2,2.758503E-2,-5.007082E-2,8.165346E-1,-2.1083727E-2,-6.6785733E-3,9.7013466E-2,2.1658778E-2,-3.6139127E-2,7.951944E-3,-8.268041E-2,-9.025781E-3,8.8406086E-2],"categories":[],"categories_nodes":[],"categories_segments":[],"categories_sizes":[],"default_left":[0,0,0,0,0,0,0,0,0,0,0,0,0,0,0,0,0,0,0,0,0,0,0,0,0,0,0,0,0,0,0,0,0,0,0,0,0,0,0,0,0,0,0,0,0,0,0,0,0],"id":22,"left_children":[1,3,5,7,9,11,13,15,17,19,-1,21,23,-1,25,-1,-1,27,-1,-1,-1,29,31,33,35,37,39,-1,-1,-1,-1,41,43,-1,45,-1,-1,-1,-1,47,-1,-1,-1,-1,-1,-1,-1,-1,-1],"loss_changes":[1.871884E1,5.9823036E0,9.6737385E0,2.8748724E0,2.3598156E0,5.5473485E0,5.2385883E0,1.3681047E0,1.6448174E0,1.1217728E0,0E0,5.2684135E0,5.268798E0,0E0,5.3553333E0,0E0,0E0,2.7042246E-1,0E0,0E0,0E0,1.9132512E0,3.654314E0,1.9620981E0,1.3482683E0,2.174504E0,3.0440178E0,0E0,0E0,0E0,0E0,2.0475273E0,1.0192403E0,0E0,1.651433E0,0E0,0E0,0E0,0E0,2.7938614E0,0E0,0E0,0E0,0E0,0E0,0E0,0E0,0E0,0E0],"parents":[2147483647,0,0,1,1,2,2,3,3,4,4,5,5,6,6,7,7,8,8,9,9,11,11,12,12,14,14,17,17,21,21,22,22,23,23,24,24,25,25,26,26,31,31,32,32,34,34,39,39],"right_children":[2,4,6,8,10,12,14,16,18,20,-1,22,24,-1,26,-1,-1,28,-1,-1,-1,30,32,34,36,38,40,-1,-1,-1,-1,42,44,-1,46,-1,-1,-1,-1,48,-1,-1,-1,-1,-1,-1,-1,-1,-1],"split_conditions":[3.4615028E-1,-1.0755146E0,-5.173457E-1,6.8584E-1,-1.7720902E0,-5.621516E-1,-2.9703987E-1,-4.6693018E-1,5.4919356E-1,-9.1595334E-1,-8.5762985E-2,-4.2532128E-1,4.6275094E-2,-3.6919963E-2,-1.4154114E0,6.2114984E-2,-1.220852E-2,6.300271E-1,2.0683836E-2,-2.7152076E-2,3.140911E-2,-5.848743E-1,6.4980036E-1,-1.2712088E0,7.158968E-1,-2.022633E-1,3.1064165E-1,-5.5753745E-2,-1.8644115E-4,2.2406287E-2,-5.161769E-2,-1.917474E-1,-9.407742E-2,1.1899298E-2,-1.9917328E0,-1.6653491E-2,5.190305E-2,2.758503E-2,-5.007082E-2,-3.1869274E-1,-2.1083727E-2,-6.6785733E-3,9.7013466E-2,2.1658778E-2,-3.6139127E-2,7.951944E-3,-8.268041E-2,-9.025781E-3,8.8406086E-2],"split_indices":[9,660,695,192,451,704,113,208,655,66,0,115,632,0,733,0,0,677,0,0,0,44,407,360,411,422,240,0,0,0,0,511,160,0,395,0,0,0,0,747,0,0,0,0,0,0,0,0,0],"split_type":[0,0,0,0,0,0,0,0,0,0,0,0,0,0,0,0,0,0,0,0,0,0,0,0,0,0,0,0,0,0,0,0,0,0,0,0,0,0,0,0,0,0,0,0,0,0,0,0,0],"sum_hessian":[1.2139146E2,3.9177437E1,8.221402E1,1.09855E1,2.8191935E1,3.918256E1,4.303146E1,4.7441626E0,6.241338E0,3.1106904E0,2.5081245E1,1.863443E1,2.0548132E1,2.6115744E0,4.0419884E1,3.201887E0,1.5422755E0,4.57238E0,1.6689575E0,1.720842E0,1.3898482E0,7.1021028E0,1.1532327E1,1.6257067E1,4.2910643E0,5.14719E0,3.5272697E1,3.5592701E0,1.0131099E0,1.8671854E0,5.2349176E0,8.241366E0,3.2909603E0,1.5887227E0,1.46683445E1,1.5677284E0,2.723336E0,2.4186893E0,2.7285008E0,3.4111553E1,1.1611441E0,1.5439312E0,6.6974354E0,1.0061573E0,2.284803E0,1.3307464E0,1.3337598E1,2.2474868E0,3.1864065E1],"tree_param":{"num_deleted":"0","num_feature":"768","num_nodes":"49","size_leaf_vector":"1"}},{"base_weights":[-3.478902E-2,-5.622948E-1,2.3719399E-1,1.12772346E-1,-7.22161E-1,6.360314E-1,4.3869324E-2,5.441679E-1,-3.734235E-1,-7.834499E-1,2.1234462E-2,-1.7569435E-1,7.42673E-1,3.5633922E-1,-2.7431738E-1,-3.1764605E-4,6.2365033E-2,-4.0954914E-2,-1.4528012E-3,-8.308121E-1,1.2138058E-2,-3.0107243E-2,1.01138195E-2,-1.2814435E-1,8.4474164E-1,5.81024E-1,-2.0972921E-1,3.3518583E-1,-5.4111516E-1,-8.888369E-2,1.7997552E-2,-2.7265174E-2,1.2245323E-2,9.8130715E-1,-8.282628E-3,7.732632E-1,-1.8824624E-1,3.8401853E-2,-5.116008E-1,5.757557E-1,-3.0724255E-2,-6.8502694E-1,1.4757496E-1,2.2147808E-2,-1.9872658E-2,1.0782601E-1,6.550373E-3,-3.1980727E-2,2.8107325E-2,9.52185E-2,-1.426092E-2,2.4192082E-2,-4.2793367E-2,-5.8392074E-2,3.4448982E-3,-1.180209E-2,7.015323E-2,-7.622698E-2,4.234476E-3,5.326323E-2,-3.131756E-2],"categories":[],"categories_nodes":[],"categories_segments":[],"categories_sizes":[],"default_left":[0,0,0,0,0,0,0,0,0,0,0,0,0,0,0,0,0,0,0,0,0,0,0,0,0,0,0,0,0,0,0,0,0,0,0,0,0,0,0,0,0,0,0,0,0,0,0,0,0,0,0,0,0,0,0,0,0,0,0,0,0],"id":23,"left_children":[1,3,5,7,9,11,13,15,17,19,-1,21,23,25,27,-1,-1,-1,-1,29,-1,-1,-1,31,33,35,37,39,41,-1,43,-1,-1,45,47,49,51,-1,53,55,-1,57,59,-1,-1,-1,-1,-1,-1,-1,-1,-1,-1,-1,-1,-1,-1,-1,-1,-1,-1],"loss_changes":[1.8649025E1,5.1688585E0,6.5079656E0,3.6950202E0,2.9136982E0,3.056797E0,6.795932E0,3.9285564E-1,8.6551785E-2,2.011774E0,0E0,4.0454024E-1,2.8083897E0,4.956673E0,6.4774294E0,0E0,0E0,0E0,0E0,1.7577896E0,0E0,0E0,0E0,4.210596E-1,2.7770271E0,4.5424833E0,3.3815823E0,2.9735422E0,3.0564895E0,0E0,5.3231186E-1,0E0,0E0,1.4483776E0,1.1885853E0,4.2212505E0,1.4639758E0,0E0,5.3568625E-1,1.4239528E0,0E0,1.4073601E0,2.3531883E0,0E0,0E0,0E0,0E0,0E0,0E0,0E0,0E0,0E0,0E0,0E0,0E0,0E0,0E0,0E0,0E0,0E0,0E0],"parents":[2147483647,0,0,1,1,2,2,3,3,4,4,5,5,6,6,7,7,8,8,9,9,11,11,12,12,13,13,14,14,19,19,23,23,24,24,25,25,26,26,27,27,28,28,30,30,33,33,34,34,35,35,36,36,38,38,39,39,41,41,42,42],"right_children":[2,4,6,8,10,12,14,16,18,20,-1,22,24,26,28,-1,-1,-1,-1,30,-1,-1,-1,32,34,36,38,40,42,-1,44,-1,-1,46,48,50,52,-1,54,56,-1,58,60,-1,-1,-1,-1,-1,-1,-1,-1,-1,-1,-1,-1,-1,-1,-1,-1,-1,-1],"split_conditions":[3.7803808E-1,5.9260476E-1,-4.355657E-1,-1.0140331E0,2.4033604E0,-3.8894707E-1,9.1116905E-1,1.0374355E0,2.6692912E-1,7.1032906E-1,2.1234462E-2,1.0146856E-1,-1.0511527E0,4.295807E-1,-1.7312074E0,-3.1764605E-4,6.2365033E-2,-4.0954914E-2,-1.4528012E-3,1.7215735E0,1.2138058E-2,-3.0107243E-2,1.01138195E-2,9.864542E-1,2.7617574E0,6.285156E-1,-1.873487E0,9.6053207E-1,5.77394E-1,-8.888369E-2,-4.077204E-1,-2.7265174E-2,1.2245323E-2,1.341888E0,6.621275E-1,7.5813526E-1,-1.1599239E0,3.8401853E-2,7.835002E-1,6.855635E-1,-3.0724255E-2,5.7506245E-1,4.764613E-1,2.2147808E-2,-1.9872658E-2,1.0782601E-1,6.550373E-3,-3.1980727E-2,2.8107325E-2,9.52185E-2,-1.426092E-2,2.4192082E-2,-4.2793367E-2,-5.8392074E-2,3.4448982E-3,-1.180209E-2,7.015323E-2,-7.622698E-2,4.234476E-3,5.326323E-2,-3.131756E-2],"split_indices":[567,358,166,104,534,318,485,17,684,172,0,366,694,599,716,0,0,0,0,120,0,0,0,623,211,748,274,745,422,0,346,0,0,635,722,429,216,0,91,649,0,304,703,0,0,0,0,0,0,0,0,0,0,0,0,0,0,0,0,0,0],"split_type":[0,0,0,0,0,0,0,0,0,0,0,0,0,0,0,0,0,0,0,0,0,0,0,0,0,0,0,0,0,0,0,0,0,0,0,0,0,0,0,0,0,0,0,0,0,0,0,0,0,0,0,0,0,0,0,0,0,0,0,0,0],"sum_hessian":[1.2033514E2,3.912194E1,8.1213196E1,7.772769E0,3.1349173E1,2.2775827E1,5.843737E1,3.8025947E0,3.9701746E0,3.017817E1,1.1710026E0,2.2687943E0,2.0507032E1,2.9181067E1,2.9256304E1,1.0908432E0,2.7117515E0,2.9659407E0,1.0042337E0,2.9065775E1,1.1123949E0,1.2602267E0,1.0085675E0,2.0174482E0,1.8489584E1,2.0794989E1,8.386079E0,8.517138E0,2.0739166E1,2.6985275E1,2.0805001E0,1.0004858E0,1.0169623E0,1.528982E1,3.1997647E0,1.6616581E1,4.1784067E0,2.3679526E0,6.0181265E0,6.5742083E0,1.9429296E0,1.7176485E1,3.5626805E0,1.0164685E0,1.0640315E0,1.3024048E1,